svm_type c_svc
kernel_type linear
nr_class 6
total_sv 37
rho -0.7019268927584603 -0.796866165254697 -0.2904251374601659 -0.25565698114972973 -0.919057606108674 0.593612828468861 0.41571003746736856 0.6299660984003811 -0.6682881702421355 0.33842286390476684 -0.1044763945129006 -1.2819852085583634 0.1691487076485232 -1.0689395501582224 -1.3139592640414761
label 1 2 3 4 5 0
nr_sv 5 8 8 6 8 2
SV
35.340624034196445 82.8697718197184 0.0 87.43607663319655 69.65180091573083 1:0.3123333156108856 2:0.006398735102266073 3:8.560180867789313E-5 4:1.9512177095748484E-4 5:2.6184081798419356E-4 6:0.0016541291261091828 7:0.009071273729205132 8:0.12507683038711548 9:0.06272220611572266 10:0.009207230061292648 11:0.023830033838748932 12:0.06103912740945816 13:0.02609092742204666 14:0.022033654153347015 15:0.005066871643066406 16:0.032913897186517715 17:0.019724922254681587 18:0.020434914156794548 19:0.07568207383155823 20:0.08312439173460007 21:0.0930529460310936 
1.6013224889517959 21.934123522018766 69.97430368513619 86.6294030514481 0.0 1:0.3255172371864319 2:8.950424380600452E-4 3:1.5106201317394152E-5 4:8.937835809774697E-5 5:2.3918153601698577E-5 6:1.7875671619549394E-4 7:0.003280563512817025 8:0.04671970382332802 9:0.11598163843154907 10:0.028789902105927467 11:0.014377327635884285 12:0.052246056497097015 13:0.04134567454457283 14:0.030539704486727715 15:0.010359077714383602 16:0.03148384392261505 17:0.02336803451180458 18:0.026427041739225388 19:0.06808742880821228 20:0.07301456481218338 21:0.097260020673275 
0.0 0.0 0.0 0.0 0.29414656681341106 1:0.32253000140190125 2:0.006405029445886612 3:7.150268647819757E-4 4:8.18252592580393E-5 5:8.811951374809723E-6 6:7.301331061171368E-5 7:1.863098150352016E-4 8:0.001115341205149889 9:0.008288268931210041 10:0.07033447176218033 11:0.024391479790210724 12:0.04294315353035927 13:0.13174748420715332 14:0.05117981135845184 15:0.0330234169960022 16:0.020817605778574944 17:0.029278336092829704 18:0.038907282054424286 19:0.11000587791204453 20:0.033009570091962814 21:0.06495792418718338 
0.0 0.0 35.02015524250838 0.0 0.0 1:0.3258533477783203 2:0.0034643555991351604 3:2.9960632673464715E-4 4:8.937835809774697E-5 5:6.294250852079131E-6 6:7.427216041833162E-5 7:2.1274566825013608E-4 8:0.001106529263779521 9:0.026576844975352287 10:0.08849968016147614 11:0.0178693775087595 12:0.04198894649744034 13:0.11352310329675674 14:0.04043552652001381 15:0.021540185436606407 16:0.01766922138631344 17:0.026618385687470436 18:0.04069862514734268 19:0.09988850355148315 20:0.02613498829305172 21:0.09745010733604431 
100.0 100.0 100.0 100.0 43.08287261690227 1:0.32423698902130127 2:4.7080995864234865E-4 3:6.294250852079131E-6 4:7.301331061171368E-5 5:1.7623902749619447E-5 6:1.3469696568790823E-4 7:0.005060577765107155 8:0.046708375215530396 9:0.11627243459224701 10:0.03197982907295227 11:0.010133743286132812 12:0.04371482878923416 13:0.04929279536008835 14:0.031898003071546555 15:0.011825637891888618 16:0.024600449949502945 17:0.019765205681324005 18:0.025414925068616867 19:0.06852802634239197 20:0.0607118234038353 21:0.1191539466381073 
-100.0 100.0 66.3685282362157 100.0 99.94680632370157 1:0.32136303186416626 2:0.0012978744925931096 3:8.811950829112902E-5 4:5.815887707285583E-4 5:8.560180867789313E-5 6:7.37686175853014E-4 7:0.005846099928021431 8:0.0819108635187149 9:0.10681469738483429 10:0.010408173315227032 11:0.008800621144473553 12:0.012971191667020321 13:0.02285694144666195 14:0.08623752743005753 15:0.009125404991209507 16:0.07886569947004318 17:0.03425834700465202 18:0.010422020219266415 19:0.006480560638010502 20:0.06034550070762634 21:0.13050247728824615 
-0.0 100.0 29.193026250436656 41.98757941997779 0.0 1:0.32588860392570496 2:0.00247364048846066 3:2.7694704476743937E-4 4:1.5987396182026714E-4 5:6.546020449604839E-5 6:1.8882752920035273E-4 7:9.466552874073386E-4 8:0.05322040617465973 9:0.0672578439116478 10:0.06179821118712425 11:0.017544593662023544 12:0.022140655666589737 13:0.024386445060372353 14:0.08365184813737869 15:0.014495659619569778 16:0.06930851191282272 17:0.036540642380714417 18:0.016742706298828125 19:0.011211319826543331 20:0.006027374416589737 21:0.17567379772663116 
-0.0 6.6251898014685695 60.01247283711177 0.0 0.0 1:0.320524662733078 2:0.005292206071317196 3:6.986618391238153E-4 4:1.3973236491438001E-4 5:1.2084961053915322E-4 6:1.611328189028427E-4 7:0.0030627823434770107 8:0.01803302764892578 9:0.06626839190721512 10:0.048069193959236145 11:0.01712791435420513 12:0.017499275505542755 13:0.025088883936405182 14:0.13791333138942719 15:0.04809814691543579 16:0.09160778671503067 17:0.0333356112241745 18:0.0194341279566288 19:0.008971825242042542 20:0.007399521302431822 21:0.12115299701690674 
-0.0 100.0 0.0 21.654535348567805 67.27654008459496 1:0.317604124546051 2:0.005205345340073109 3:5.891418550163507E-4 4:1.6239167598541826E-4 5:1.5609741967637092E-4 6:1.9512177095748484E-4 7:0.0060877990908920765 8:0.0047232056967914104 9:0.050586894154548645 10:0.0305183045566082 11:0.020360643044114113 12:0.017504312098026276 13:0.02553577534854412 14:0.1807708740234375 15:0.05649719387292862 16:0.10930218547582626 17:0.04516754299402237 18:0.025150567293167114 19:0.01029487606137991 20:0.008118324913084507 21:0.07546932250261307 
-0.0 100.0 100.0 100.0 0.0 1:0.3186439275741577 2:0.00788040179759264 3:9.856796823441982E-4 4:2.404403785476461E-4 5:8.937835809774697E-5 6:2.051925694104284E-4 7:0.0019549941644072533 8:0.010659943334758282 9:0.04442104697227478 10:0.030553551390767097 11:0.021177636459469795 12:0.022187232971191406 13:0.029540177434682846 14:0.17146041989326477 15:0.04778217524290085 16:0.10985103994607925 17:0.050386734306812286 18:0.027076607570052147 19:0.0130681237205863 20:0.008745231665670872 21:0.073090098798275 
-0.0 0.0 100.0 69.21797394926821 0.0 1:0.31241387128829956 2:0.01480911299586296 3:0.001685600378550589 4:2.6561738923192024E-4 5:5.790710565634072E-5 6:1.472854637540877E-4 7:6.20613107457757E-4 8:0.034521449357271194 9:0.04914424940943718 10:0.04941112548112869 11:0.022376060485839844 12:0.024211464449763298 13:0.028915787115693092 14:0.12141987681388855 15:0.044784851372241974 16:0.08730251342058182 17:0.03535103052854538 18:0.020321618765592575 19:0.011469383724033833 20:0.006968994624912739 21:0.12380161881446838 
-2.982054322703971 0.0 0.0 0.0 0.0 1:0.31948861479759216 2:0.008300857618451118 3:0.0010196686489507556 4:2.643585321493447E-4 5:4.65774537588004E-5 6:2.1148682571947575E-4 7:6.684494437649846E-4 8:0.05450065806508064 9:0.06589702516794205 10:0.057927247136831284 11:0.02140422910451889 12:0.023253479972481728 13:0.022742386907339096 14:0.08427498489618301 15:0.027165986597537994 16:0.07302337884902954 17:0.028740808367729187 18:0.01581493392586708 19:0.010489998385310173 20:0.005990867968648672 21:0.16877403855323792 
-33.95989220044427 81.390682235613 68.244935557581 84.35081558975608 32.77665359170348 1:0.31811270117759705 2:0.010777016170322895 3:3.4618377685546875E-4 4:1.2210846762172878E-4 5:4.2800904338946566E-5 6:1.2966156646143645E-4 7:4.695511015597731E-4 8:0.06853054463863373 9:0.061410486698150635 10:0.09373649954795837 11:0.017712021246552467 12:0.01777622289955616 13:0.01722232811152935 14:0.053611911833286285 15:0.010401878505945206 16:0.04482639580965042 17:0.02739509753882885 18:0.014009742997586727 19:0.010135002434253693 20:0.006036186590790749 21:0.21719570457935333 
-0.0 -100.0 100.0 100.0 0.0 1:0.32580047845840454 2:5.312347784638405E-4 3:1.1329650988045614E-5 4:8.686065848451108E-5 5:1.8882752556237392E-5 6:1.1329651169944555E-4 7:0.0034379197750240564 8:0.06239365041255951 9:0.10776512324810028 10:0.01868511363863945 11:0.010034294798970222 12:0.01228260062634945 13:0.019908715039491653 14:0.09893051534891129 15:0.007661362178623676 16:0.059244006872177124 17:0.03419918194413185 18:0.033464014530181885 19:0.014746170490980148 20:0.057835351675748825 21:0.12284992635250092 
-0.0 -88.01587203708158 0.0 100.0 100.0 1:0.3183518648147583 2:3.7765505840070546E-4 3:2.0141602362855338E-5 4:8.811950829112902E-5 5:1.3847351510776207E-5 6:1.6616821812931448E-4 7:0.010982208885252476 8:0.09238701313734055 9:0.09792973101139069 10:0.01636253483593464 11:0.008083077147603035 12:0.008752784691751003 13:0.01235939096659422 14:0.09412548691034317 15:0.008997001685202122 16:0.05034267529845238 17:0.030101625248789787 18:0.02911468595266342 19:0.012559548020362854 20:0.06298782676458359 21:0.13589665293693542 
-100.0 -0.0 0.0 20.78807246587563 0.0 1:0.31591475009918213 2:0.0059090424329042435 3:6.02989224717021E-4 4:8.686065848451108E-5 5:2.6939393137581646E-4 6:6.394958472810686E-4 7:0.0065774922259151936 8:0.0975722149014473 9:0.11945229023694992 10:0.021468430757522583 11:0.01130573358386755 12:0.009170723147690296 13:0.013175125233829021 14:0.05785549432039261 15:0.021634599193930626 16:0.030081482604146004 17:0.0199439637362957 18:0.022498169913887978 19:0.011884803883731365 20:0.06676563620567322 21:0.15719136595726013 
-0.0 -100.0 0.0 15.004766209487828 0.0 1:0.3187912106513977 2:4.4185639126226306E-4 3:1.0070801181427669E-5 4:7.804870983818546E-5 5:1.1329650988045614E-5 6:1.2714386684820056E-4 7:0.010540352202951908 8:0.08515869826078415 9:0.09581486135721207 10:0.013314858078956604 11:0.00792697910219431 12:0.009822807274758816 13:0.01743129827082157 14:0.10053051263093948 15:0.005786933936178684 16:0.05770694836974144 17:0.03212711587548256 18:0.03464733436703682 19:0.0120610436424613 20:0.05287548154592514 21:0.1347951591014862 
-0.0 -100.0 100.0 100.0 0.0 1:0.3132963180541992 2:0.015739403665065765 3:6.080245948396623E-4 4:7.301331061171368E-5 5:1.2588501704158261E-5 6:8.056640945142135E-5 7:1.9008637173101306E-4 8:0.0030275345779955387 9:0.07166256010532379 10:0.04997005686163902 11:0.01742500439286232 12:0.014573708176612854 13:0.024357492104172707 14:0.1489836573600769 15:0.038355905562639236 16:0.05454597622156143 17:0.044291384518146515 18:0.05863094702363014 19:0.01530510000884533 20:0.021482277661561966 21:0.09738842397928238 
-0.0 -0.0 0.0 100.0 3.238307457211719 1:0.32064422965049744 2:6.646728725172579E-4 3:2.177810820285231E-4 4:8.308410906465724E-5 5:1.422500645276159E-4 6:2.4421693524345756E-4 7:0.00800376944243908 8:0.09658276289701462 9:0.11080147325992584 10:0.013586769811809063 11:0.009252548217773438 12:0.009574813768267632 13:0.01211391482502222 14:0.07808773219585419 15:0.009054909460246563 16:0.041315462440252304 17:0.027984239161014557 18:0.02935638464987278 19:0.014490623958408833 20:0.06935635209083557 21:0.1384420394897461 
-4.803895341737167 -100.0 100.0 100.0 80.66529590343704 1:0.32054227590560913 2:0.00770416297018528 3:3.348541504237801E-4 4:1.1833191092591733E-4 5:1.0700226266635582E-4 6:1.4980316336732358E-4 7:0.0010435867588967085 8:0.0012764740968123078 9:0.041571009904146194 10:0.07671307027339935 11:0.016683541238307953 12:0.014464188367128372 13:0.021439475938677788 14:0.15785226225852966 15:0.03207046538591385 16:0.062017250806093216 17:0.03581680357456207 18:0.050278473645448685 19:0.026576844975352287 20:0.014762535691261292 21:0.1084776371717453 
-100.0 -0.0 89.86563562261487 100.0 16.096396639351237 1:0.32078900933265686 2:8.509826730005443E-4 3:2.0141602362855338E-5 4:9.693146421341226E-5 5:3.5247805499238893E-5 6:2.265930233988911E-4 7:0.007981110364198685 8:0.1001981794834137 9:0.08697521686553955 10:0.008922729641199112 11:0.01064987201243639 12:0.01425144262611866 13:0.026196671649813652 14:0.08280590176582336 15:0.005421867594122887 16:0.05359554663300514 17:0.03642357140779495 18:0.03594772517681122 19:0.011416511610150337 20:0.06927704066038132 21:0.1179177537560463 
-72.97107474814074 -12.914358334288002 -100.0 85.21006457862656 0.0 1:0.32707569003105164 2:5.916595691815019E-4 3:2.0267486979719251E-4 4:8.308410906465724E-5 5:2.0645142649300396E-4 6:1.5987396182026714E-4 7:0.0016805649502202868 8:0.0014376068720594049 9:0.07454407215118408 10:0.1017276793718338 11:0.01757984235882759 12:0.021411782130599022 13:0.03629264980554581 14:0.07700638473033905 15:0.009485435672104359 16:0.06907059252262115 17:0.02986873686313629 18:0.024693604558706284 19:0.017156869173049927 20:0.05771324411034584 21:0.12201153486967087 
-0.0 -100.0 -3.9641852172774796 15.16469887569486 0.0 1:0.3273324966430664 2:6.49566703941673E-4 3:2.102279686369002E-4 4:7.301331061171368E-5 5:2.1400452533271164E-4 6:1.5106202044989914E-4 7:0.0013696289388462901 8:0.0013381576864048839 9:0.07065799832344055 10:0.12231113761663437 11:0.016147270798683167 12:0.01777874119579792 13:0.028074875473976135 14:0.07369183003902435 15:0.009913444519042969 16:0.05945926904678345 17:0.02437259815633297 18:0.02084404043853283 19:0.015472527593374252 20:0.05373401939868927 21:0.1462041139602661 
-100.0 -100.0 -100.0 100.0 100.0 1:0.3222391903400421 2:0.00594051368534565 3:4.8717501340433955E-4 4:1.0196686343988404E-4 5:2.945709275081754E-4 6:2.1274566825013608E-4 7:7.238388061523438E-4 8:0.06892833858728409 9:0.1203838363289833 10:0.03413623943924904 11:0.018150102347135544 12:0.014991646632552147 13:0.023641206324100494 14:0.04976864159107208 15:0.03339729458093643 16:0.03410476818680763 17:0.02029014751315117 18:0.01773090474307537 19:0.014543496072292328 20:0.04672851786017418 21:0.16320489346981049 
-0.0 -100.0 -100.0 100.0 94.26632710039172 1:0.32451772689819336 2:0.0014564896700903773 3:6.734848138876259E-4 4:1.8505097250454128E-4 5:6.042480817995965E-4 6:4.833984421566129E-4 7:0.0020796204917132854 8:0.0036859132815152407 9:0.025513116270303726 10:0.04777965694665909 11:0.021932946518063545 12:0.03198989853262901 13:0.0623432956635952 14:0.13675518333911896 15:0.02134883962571621 16:0.09842319786548615 17:0.04387596249580383 18:0.0423162467777729 19:0.03380264341831207 20:0.018664970993995667 21:0.07156814634799957 
-0.0 -10.904604547057076 -0.0 0.0 0.0 1:0.3260333836078644 2:6.697083008475602E-4 3:4.997635260224342E-4 4:9.063720790436491E-5 5:4.77104214951396E-4 6:2.6939393137581646E-4 7:0.0019600295927375555 8:0.002034301869571209 9:0.03444969281554222 10:0.11253239214420319 11:0.019349785521626472 12:0.023247186094522476 13:0.04231246933341026 14:0.0960741862654686 15:0.013866234570741653 16:0.07680118829011917 17:0.03425834700465202 18:0.02891327068209648 19:0.0192906204611063 20:0.045298464596271515 21:0.11157188564538956 
-32.02338417950385 -100.0 -85.90145040533739 100.0 0.0 1:0.3239927887916565 2:0.0012940979795530438 3:6.306839059107006E-4 4:2.1148682571947575E-4 5:6.130600231699646E-4 6:4.0534973959438503E-4 7:0.0028525544330477715 8:0.0033044817391783 9:0.01948448270559311 10:0.04787532985210419 11:0.02321949042379856 12:0.0343615747988224 13:0.0669771209359169 14:0.13477753102779388 15:0.01919242925941944 16:0.10300792753696442 17:0.04820514842867851 18:0.041564714163541794 19:0.035181086510419846 20:0.023953400552272797 21:0.058895304799079895 
-9.720356626012101 -100.0 -100.0 -100.0 0.0 1:0.3243817687034607 2:0.0013394166016951203 3:7.84263655077666E-4 4:1.9512177095748484E-4 5:6.898498977534473E-4 6:4.305267648305744E-4 7:0.0021790696773678064 8:0.0033586123026907444 9:0.019405175000429153 10:0.043381236493587494 11:0.02452114224433899 12:0.036637574434280396 13:0.07357098162174225 14:0.12912529706954956 15:0.019675828516483307 16:0.10340698808431625 17:0.04812835901975632 18:0.03984512388706207 19:0.036388322710990906 20:0.023908082395792007 21:0.058647312223911285 
-100.0 -100.0 -100.0 -100.0 42.17367992626585 1:0.30834025144577026 2:0.0016201401595026255 3:2.6939393137581646E-4 4:8.056640945142135E-5 5:2.555465907789767E-4 6:3.8646699977107346E-4 7:0.019047660753130913 8:0.10502838343381882 9:0.08276688307523727 10:0.013638382777571678 11:0.012648926116526127 12:0.021783143281936646 13:0.03942215070128441 14:0.054712146520614624 15:0.016532478854060173 16:0.06561756134033203 17:0.026398086920380592 18:0.018500061705708504 19:0.015895500779151917 20:0.07006382197141647 21:0.11699249595403671 
-0.0 -33.71198461642242 -0.0 -100.0 0.0 1:0.3227188289165497 2:0.006372299510985613 3:4.808807570952922E-4 4:7.678986003156751E-5 5:1.6365051124012098E-5 6:1.0951996227959171E-4 7:2.2533418086823076E-4 8:8.92524782102555E-4 9:0.03736770898103714 10:0.08109009265899658 11:0.014719734899699688 12:0.011524773202836514 13:0.013175125233829021 14:0.17123006284236908 15:0.033915940672159195 16:0.024152299389243126 17:0.029122238978743553 18:0.026717836037278175 19:0.06730316579341888 20:0.056075479835271835 21:0.09271305799484253 
-56.75173239545997 -0.0 -100.0 -0.0 45.83682306113052 1:0.3222455084323883 2:4.934692406095564E-4 3:1.0070801181427669E-5 4:7.93075596448034E-5 5:3.0212402634788305E-5 6:1.3217926607467234E-4 7:0.007009277585893869 8:0.04861049726605415 9:0.08447891473770142 10:0.02961570769548416 11:0.009348221123218536 12:0.010069542564451694 13:0.012223434634506702 14:0.13565368950366974 15:0.00785144791007042 16:0.03666400909423828 17:0.03056362271308899 18:0.026808472350239754 19:0.08934563398361206 20:0.06571071594953537 21:0.07305610924959183 
-7.5933906631726 -0.0 -100.0 -52.26098888163822 0.0 1:0.3208683133125305 2:6.180954515002668E-4 3:2.5177003408316523E-5 4:6.79779113852419E-5 5:2.3918153601698577E-5 6:4.4185639126226306E-4 7:0.00795467384159565 8:0.065058633685112 9:0.12501011788845062 10:0.028844034299254417 11:0.007307624910026789 12:0.007859001867473125 13:0.009294090792536736 14:0.08662651479244232 15:0.006637916900217533 16:0.0246193315833807 17:0.018442153930664062 18:0.016887474805116653 19:0.028872987255454063 20:0.10448707640171051 21:0.1300530731678009 
-100.0 -83.49891969114749 -100.0 -0.0 13.770015578624989 1:0.32140836119651794 2:6.898498977534473E-4 3:2.1400452169473283E-5 4:7.049561099847779E-5 5:1.3847351510776207E-5 6:2.731704735197127E-4 7:0.007522888481616974 8:0.0775514617562294 9:0.11721783131361008 10:0.026461029425263405 11:0.007689056918025017 12:0.007918167859315872 13:0.01032382994890213 14:0.08283863216638565 15:0.006733589340001345 16:0.024387704208493233 17:0.018342705443501472 18:0.015831299126148224 19:0.029426880180835724 20:0.09018150717020035 21:0.1450963318347931 
-0.0 -100.0 -100.0 -48.113774572683184 0.0 1:0.31801071763038635 2:0.009375915862619877 3:4.5696261804550886E-4 4:2.3792267893441021E-4 5:9.944916382664815E-5 6:3.084182972088456E-4 7:0.0015106202336028218 8:0.025340653955936432 9:0.04012081399559975 10:0.0374658964574337 11:0.02926448918879032 12:0.016429252922534943 13:0.011356087401509285 14:0.17002281546592712 15:0.018112335354089737 16:0.01586654782295227 17:0.01842453144490719 18:0.025166932493448257 19:0.022748680785298347 20:0.02592979557812214 21:0.20375119149684906 
-0.0 -0.0 -35.792838675363456 -0.0 98.21948143397866 1:0.32341498136520386 2:0.005167579744011164 3:5.765533423982561E-4 4:2.7820587274618447E-4 5:5.161285662325099E-5 6:2.8827667119912803E-4 7:2.2281648125499487E-4 8:0.012344284914433956 9:0.03092491254210472 10:0.03913639113306999 11:0.029122238978743553 12:0.013798256404697895 13:0.014500695280730724 14:0.19017323851585388 15:0.024346161633729935 16:0.016803132370114326 17:0.019116898998618126 18:0.026050645858049393 19:0.031244659796357155 20:0.05987972393631935 21:0.15255878865718842 
-13.02882009944652 -100.0 -100.0 -94.26632710039172 -100.0 1:0.3233281075954437 2:0.005375290289521217 3:4.896927275694907E-4 4:2.630996750667691E-4 5:6.168365507619455E-5 6:2.8827667119912803E-4 7:1.938629284268245E-4 8:0.012580947950482368 9:0.03026653453707695 10:0.036475181579589844 11:0.031303826719522476 12:0.014004708267748356 13:0.0158199705183506 14:0.18954885005950928 15:0.028189431875944138 16:0.017894554883241653 17:0.01944545842707157 18:0.02598266676068306 19:0.030347101390361786 20:0.057028427720069885 21:0.1511123776435852 
-100.0 -100.0 -100.0 -100.0 -100.0 1:0.31919655203819275 2:0.002039337297901511 3:1.5106201317394152E-5 4:8.811950829112902E-5 5:4.154205453232862E-5 6:5.954361404292285E-4 7:0.008023911155760288 8:0.11310642957687378 9:0.07193825393915176 10:0.009407387115061283 11:0.007039490155875683 12:0.009471588768064976 13:0.014031143859028816 14:0.10500572621822357 15:0.007278671488165855 16:0.0316273495554924 17:0.02094223164021969 18:0.018060723319649696 19:0.06433353573083878 20:0.08229103684425354 21:0.10546646267175674 
