svm_type c_svc
kernel_type linear
nr_class 6
total_sv 61
rho 1.0002944693962326 2.4171547180837205 1.4627112896639731 1.5877269358566097 1.650768642244837 -0.9997122581072485 -1.0001556835575822 -0.9999878697471283 -0.9998431466813583 -1.9255951143324228 -0.7936248028981513 -0.18379511124937456 1.1391319821777124 1.0959556570455686 -0.5181108408032096
label 1 0 2 3 4 5
nr_sv 14 3 7 12 11 14
SV
0.0 0.0 84.39456619272762 0.0 33.6317630051854 1:0.0756894201040268 2:0.1262262463569641 3:0.10821621865034103 4:0.006405518390238285 5:0.0022198199294507504 6:1.9572072778828442E-4 7:1.597973023308441E-4 8:2.3536036678706296E-5 9:5.3265768656274304E-5 10:2.6385136879980564E-4 11:7.556306809419766E-5 12:2.1058560378151014E-5 13:5.4504507716046646E-5 14:6.81306337355636E-5 15:5.165540496818721E-4 16:0.001617792877368629 17:0.004167117178440094 18:1.0405405919300392E-4 19:3.567567910067737E-4 20:2.601351479825098E-5 21:1.4617117994930595E-4 22:0.002700450597330928 23:6.924550398252904E-4 24:0.0 25:0.0 26:0.23638606071472168 27:0.0063113742507994175 28:0.0020686937496066093 29:0.0018407658208161592 30:0.0014047299046069384 31:0.001021959469653666 32:8.918919484131038E-4 33:0.0011136261746287346 34:0.004175788722932339 35:0.017687950283288956 36:0.022423649206757545 37:0.015177028253674507 38:0.009018017910420895 39:0.00502927927300334 40:0.002650901209563017 41:0.0013824324123561382 42:6.503378390334547E-4 43:3.5180183476768434E-4 44:1.709459611447528E-4 45:1.0653153731254861E-4 46:5.9459463955136016E-5 47:2.3536036678706296E-5 48:1.6103604139061645E-5 49:3.716216451721266E-5 50:0.0 51:0.0 52:0.0 53:0.0 54:0.0 55:8.671171599416994E-6 56:1.8457208352629095E-4 57:5.834459443576634E-4 58:4.5337839401327074E-4 59:3.3817568328231573E-4 60:3.9268017280846834E-4 61:5.710585974156857E-4 62:0.0010950451251119375 63:0.0020612613297998905 64:0.003859909949824214 65:0.00622590072453022 66:0.009558108635246754 67:0.01340563129633665 68:0.01759009063243866 69:0.017920834943652153 70:0.010929392650723457 71:0.07001970708370209 72:0.17395980656147003 73:8.398648933507502E-4 74:2.477477664797334E-6 75:0.0 
0.0 0.0 0.0 0.0 3.8403045138457808 1:0.12142842262983322 2:0.0015685721300542355 3:0.16957299411296844 4:0.013907836750149727 5:0.0018531868699938059 6:6.636757461819798E-5 7:4.1990255704149604E-4 8:1.2762995993398363E-6 9:1.2762995993398363E-6 10:0.012001045048236847 11:2.8206221759319305E-4 12:0.0 13:8.295947191072628E-5 14:6.381497769325506E-6 15:0.001287786290049553 16:0.006370011251419783 17:5.105198215460405E-5 18:1.2762995993398363E-6 19:3.9565285987919196E-5 20:0.0 21:5.105198397359345E-6 22:0.0010376315331086516 23:1.5315594282583334E-5 24:0.0 25:0.0 26:0.15610547363758087 27:0.002964843763038516 28:0.0020433557219803333 29:0.0019016863079741597 30:0.006399366073310375 31:0.018973469734191895 32:0.03235802426934242 33:0.03622393310070038 34:0.02922981232404709 35:0.019514620304107666 36:0.011379486881196499 37:0.006274288520216942 38:0.003304339712485671 39:0.0016808866057544947 40:8.091739728115499E-4 41:4.1734997648745775E-4 42:1.9527382391970605E-4 43:1.1231435928493738E-4 44:6.126237713033333E-5 45:2.4249691705335863E-5 46:1.7868193026515655E-5 47:6.381497769325506E-6 48:0.0 49:2.5525991986796726E-6 50:0.0 51:8.934096513257828E-6 52:2.9354889193200506E-5 53:1.6591893654549494E-5 54:3.190748975612223E-5 55:1.021039643092081E-4 56:1.2507734936662018E-4 57:2.7695699827745557E-4 58:5.424272967502475E-4 59:9.202120127156377E-4 60:0.001703860005363822 61:0.00292400224134326 62:0.004756768234074116 63:0.007606745231896639 64:0.011912979185581207 65:0.018413174897432327 66:0.02555534616112709 67:0.03092729113996029 68:0.030786899849772453 69:0.021944694221019745 70:0.009453550912439823 71:0.01166537869721651 72:0.05335315316915512 73:0.09694260358810425 74:0.0 75:0.0 
0.0 100.0 100.0 100.0 100.0 1:0.23908500373363495 2:0.0012246667174622416 3:0.06590833514928818 4:0.011909333057701588 5:0.001529000117443502 6:0.0011623334139585495 7:9.900000877678394E-4 8:3.300000025774352E-5 9:9.533334377920255E-5 10:0.002141333417966962 11:1.026666650432162E-4 12:0.0023870000150054693 13:1.8333335174247622E-4 14:3.4466665238142014E-4 15:3.2633336377330124E-4 16:3.2266665948554873E-4 17:5.13333325216081E-5 18:3.666666816570796E-5 19:8.433334005530924E-5 20:0.0017270001117140055 21:7.333333542192122E-6 22:3.116666921414435E-4 23:3.666666816570796E-5 24:0.0 25:0.0 26:0.2597210109233856 27:0.0027169999666512012 28:0.0018223334336653352 29:0.0013859999598935246 30:0.0031496668234467506 31:0.011788333766162395 32:0.015777666121721268 33:0.01316700130701065 34:0.00860566645860672 35:0.00508200004696846 36:0.002827000105753541 37:0.0016023333882912993 38:9.313333430327475E-4 39:4.5466667506843805E-4 40:3.2633336377330124E-4 41:2.236666769022122E-4 42:1.3933333684690297E-4 43:6.600000051548705E-5 44:4.7666671889601275E-5 45:3.666666816570796E-5 46:4.7666671889601275E-5 47:1.4666667084384244E-5 48:1.100000099540921E-5 49:5.500000042957254E-5 50:0.0 51:0.0 52:0.0 53:7.333333542192122E-6 54:7.333333542192122E-6 55:6.966666842345148E-5 56:1.503333478467539E-4 57:4.3633332825265825E-4 58:7.296666735783219E-4 59:0.001364000141620636 60:0.002379666781052947 61:0.0032523334957659245 62:0.004627333488315344 63:0.005742000415921211 64:0.007564333267509937 65:0.00796766672283411 66:0.008517666719853878 67:0.008151000365614891 68:0.006695333402603865 69:0.004557666834443808 70:0.002665666863322258 71:0.0014446666464209557 72:9.60666686296463E-4 73:0.003564000129699707 74:0.2591453492641449 75:0.0 
0.0 39.16957635218881 0.0 31.950388765744915 35.393398631634724 1:0.0899694561958313 2:3.490909148240462E-5 3:0.17917092144489288 4:0.01850181818008423 5:0.015312000177800655 6:0.013880728743970394 7:0.00716509111225605 8:0.002094545401632786 9:0.0013352726818993688 10:0.0010821818141266704 11:2.967272885143757E-4 12:6.545454380102456E-4 13:1.745454574120231E-5 14:2.6181820430792868E-5 15:4.3636364353005774E-6 16:1.4400000509340316E-4 17:0.0 18:0.0 19:0.0 20:2.7927273185923696E-4 21:0.0 22:3.0545455956598744E-5 23:0.0 24:0.0 25:0.0 26:0.141220360994339 27:0.0075621819123625755 28:0.00342981843277812 29:0.0032029091380536556 30:0.00232145469635725 31:0.015202909708023071 32:0.06273600459098816 33:0.05341527238488197 34:0.024798545986413956 35:0.010010181926190853 36:0.0038400001358240843 37:0.0013745456235483289 38:5.018181982450187E-4 39:2.530909259803593E-4 40:6.109091191319749E-5 41:3.490909148240462E-5 42:2.6181820430792868E-5 43:8.727272870601155E-6 44:0.0 45:0.0 46:0.0 47:0.0 48:0.0 49:0.0 50:0.0 51:0.0 52:0.0 53:0.0 54:0.0 55:0.0 56:0.0 57:7.418182212859392E-5 58:3.6654548603110015E-4 59:8.770909043960273E-4 60:0.002487272722646594 61:0.005362909287214279 62:0.009250909090042114 63:0.015412364155054092 64:0.022433454170823097 65:0.02868654765188694 66:0.03168000280857086 67:0.0297250933945179 68:0.023136001080274582 69:0.01458327379077673 70:0.008286545984447002 71:0.009320727549493313 72:0.019924364984035492 73:0.01195636484771967 74:0.09643636643886566 75:0.0 
90.035665663894 0.0 40.9732524199491 9.799717933361904 43.138243014083734 1:0.02392902970314026 2:0.0039179446175694466 3:0.12992219626903534 4:0.007189746014773846 5:0.0018353029154241085 6:6.19555707089603E-4 7:7.734375540167093E-4 8:2.1833497157786041E-4 9:2.876220678444952E-4 10:0.005898266565054655 11:9.257080382667482E-4 12:3.6738283233717084E-4 13:0.04184861108660698 14:0.019456787034869194 15:0.030481494963169098 16:0.03311118483543396 17:0.026865674182772636 18:3.0534667894244194E-4 19:7.218750542961061E-4 20:3.544921855791472E-5 21:1.6596680507063866E-4 22:8.991211070679128E-4 23:2.2397460998035967E-4 24:0.0 25:0.0 26:0.19355112314224243 27:0.0034643555991351604 28:0.0019207032164558768 29:0.0014187744818627834 30:0.0013519043568521738 31:0.002028662245720625 32:0.007151074707508087 33:0.02044694870710373 34:0.026007642969489098 35:0.019786303862929344 36:0.013419141061604023 37:0.009340869262814522 38:0.006633032578974962 39:0.004894409328699112 40:0.0036198487505316734 41:0.0027940431609749794 42:0.0021696535404771566 43:0.001734594814479351 44:0.0013011475093662739 45:0.0010457519674673676 46:8.757568430155516E-4 47:7.24292011000216E-4 48:6.388915935531259E-4 49:0.003681079251691699 50:0.0 51:0.0 52:6.767578452127054E-5 53:4.439209296833724E-4 54:7.24292011000216E-4 55:0.0012697266647592187 56:0.001869946252554655 57:0.0025313966907560825 58:0.0033177246805280447 59:0.00405651843175292 60:0.004754223860800266 61:0.00542211951687932 62:0.006492041517049074 63:0.007371020503342152 64:0.008171850815415382 65:0.009269165806472301 66:0.010547754354774952 67:0.012589306570589542 68:0.013730127364397049 69:0.014043530449271202 70:0.012505518272519112 71:0.009306225925683975 72:0.04373225197196007 73:0.15397287905216217 74:0.003810791065916419 75:0.0 
0.0 0.0 34.80993688134225 0.0 0.0 1:0.028656821697950363 2:0.2485736459493637 3:0.04929240792989731 4:9.332773624919355E-4 5:2.1229054254945368E-4 6:7.100627408362925E-5 7:7.66139492043294E-5 8:1.966327545233071E-5 9:2.8548161935759708E-5 10:8.185749175027013E-5 11:7.340955926338211E-5 12:6.204855890246108E-5 13:1.335646229563281E-4 14:1.7616839613765478E-4 15:1.9655993673950434E-4 16:9.023258462548256E-5 17:5.0032114813802764E-5 18:1.369146593788173E-5 19:6.8166023993399E-5 20:2.4032892724790145E-6 21:4.056460966239683E-5 22:4.520368529483676E-4 23:6.796210072934628E-4 24:1.536648596811574E-5 25:0.0 26:0.03276345878839493 27:0.07176265120506287 28:0.002159391762688756 29:0.0027144060004502535 30:0.005881285760551691 31:0.013120065443217754 32:0.024744410067796707 33:0.038088712841272354 34:0.04517972469329834 35:0.03972768038511276 36:0.025010958313941956 37:0.012966400943696499 38:0.0066123222932219505 39:0.0037334735970944166 40:0.0022945585660636425 41:0.0014208536595106125 42:7.97309388872236E-4 43:4.1809948743321E-4 44:2.26855932851322E-4 45:1.3487550313584507E-4 46:8.134769450407475E-5 47:5.563978629652411E-5 48:3.0368835723493248E-5 49:7.515740435337648E-5 50:0.0 51:4.369616988242342E-7 52:5.316367150953738E-6 53:2.9349259420996532E-5 54:1.299232681049034E-4 55:3.8408933323808014E-4 56:8.209781371988356E-4 57:0.0015150189865380526 58:0.0026001406367868185 59:0.004143489059060812 60:0.006282052490860224 61:0.009080937132239342 62:0.012600590474903584 63:0.017099913209676743 64:0.02348770946264267 65:0.029778501018881798 66:0.03394835442304611 67:0.03307697921991348 68:0.025566846132278442 69:0.015093894675374031 70:0.0070759388618171215 71:0.014730779454112053 72:0.04518802836537361 73:0.04686778411269188 74:4.929656279273331E-4 75:0.0 
1.1050338982483514 0.0 0.0 100.0 89.95864186028697 1:0.07458354532718658 2:0.005055280867964029 3:0.17936944961547852 4:0.051224421709775925 5:0.007780322339385748 6:0.0017403053352609277 7:6.262376555241644E-4 8:6.60272256936878E-4 9:7.941419607959688E-5 10:3.902640601154417E-4 11:5.89934024901595E-5 12:0.0021328383591026068 13:1.3613862392958254E-5 14:1.1571782670216635E-4 15:6.353135540848598E-5 16:7.941419607959688E-4 17:9.075908019440249E-5 18:1.7017326899804175E-4 19:9.756601502886042E-5 20:0.004149958956986666 21:9.756601502886042E-5 22:5.990099161863327E-4 23:1.0664192086551338E-4 24:0.0 25:0.0 26:0.1277434080839157 27:0.016422856599092484 28:0.008284035138785839 29:0.006534653715789318 30:0.005050742998719215 31:0.004347360227257013 32:0.004406353458762169 33:0.00598329259082675 34:0.010060643777251244 35:0.016102928668260574 36:0.02187974564731121 37:0.025830034166574478 38:0.024178218096494675 39:0.018585190176963806 40:0.012617780826985836 41:0.007986798882484436 42:0.004878300707787275 43:0.002808993449434638 44:0.0016200495883822441 45:8.871700265444815E-4 46:4.7421621275134385E-4 47:2.2235974029172212E-4 48:1.8605611694511026E-4 49:0.0029088284354656935 50:0.0 51:0.012740305624902248 52:4.31105618190486E-5 53:4.537954009720124E-5 54:1.0437294258736074E-4 55:1.406765659339726E-4 56:1.4294554421212524E-4 57:1.406765659339726E-4 58:1.9286303722765297E-4 59:3.176567843183875E-4 60:4.900990170426667E-4 61:7.986798882484436E-4 62:0.0013795379782095551 63:0.00245503312908113 64:0.004705857951194048 65:0.0064801983535289764 66:0.010959158651530743 67:0.015882838517427444 68:0.02182982861995697 69:0.02671947330236435 70:0.029694100841879845 71:0.025140265002846718 72:0.0188506618142128 73:0.020960809662938118 74:0.1297854781150818 75:0.0 
37.425003509047954 43.73113442153126 49.833136108593635 90.69115536189621 100.0 1:0.07458354532718658 2:0.005055280867964029 3:0.17936944961547852 4:0.051224421709775925 5:0.007780322339385748 6:0.0017403053352609277 7:6.262376555241644E-4 8:6.60272256936878E-4 9:7.941419607959688E-5 10:3.902640601154417E-4 11:5.89934024901595E-5 12:0.0021328383591026068 13:1.3613862392958254E-5 14:1.1571782670216635E-4 15:6.353135540848598E-5 16:7.941419607959688E-4 17:9.075908019440249E-5 18:1.7017326899804175E-4 19:9.756601502886042E-5 20:0.004149958956986666 21:9.756601502886042E-5 22:5.990099161863327E-4 23:1.0664192086551338E-4 24:0.0 25:0.0 26:0.1277434080839157 27:0.016422856599092484 28:0.008284035138785839 29:0.006534653715789318 30:0.005050742998719215 31:0.004347360227257013 32:0.004406353458762169 33:0.00598329259082675 34:0.010060643777251244 35:0.016102928668260574 36:0.02187974564731121 37:0.025830034166574478 38:0.024178218096494675 39:0.018585190176963806 40:0.012617780826985836 41:0.007986798882484436 42:0.004878300707787275 43:0.002808993449434638 44:0.0016200495883822441 45:8.871700265444815E-4 46:4.7421621275134385E-4 47:2.2235974029172212E-4 48:1.8605611694511026E-4 49:0.0029088284354656935 50:0.0 51:0.012740305624902248 52:4.31105618190486E-5 53:4.537954009720124E-5 54:1.0437294258736074E-4 55:1.406765659339726E-4 56:1.4294554421212524E-4 57:1.406765659339726E-4 58:1.9286303722765297E-4 59:3.176567843183875E-4 60:4.900990170426667E-4 61:7.986798882484436E-4 62:0.0013795379782095551 63:0.00245503312908113 64:0.004705857951194048 65:0.0064801983535289764 66:0.010959158651530743 67:0.015882838517427444 68:0.02182982861995697 69:0.02671947330236435 70:0.029694100841879845 71:0.025140265002846718 72:0.0188506618142128 73:0.020960809662938118 74:0.1297854781150818 75:0.0 
59.1273065386356 58.78550742987439 100.0 0.0 16.816605214127026 1:0.02352900058031082 2:0.27497249841690063 3:0.02965874969959259 4:0.0 5:0.0 6:0.0 7:0.0 8:0.0 9:0.0 10:0.0 11:0.0 12:0.0 13:0.0 14:0.0 15:0.0 16:0.0 17:0.0 18:0.0 19:0.0 20:0.0 21:0.0 22:1.2375001097097993E-4 23:0.0016830001259222627 24:3.300000025774352E-5 25:0.0 26:9.239999926649034E-4 27:0.058236751705408096 28:0.020121751353144646 29:0.010073251090943813 30:0.006946500390768051 31:0.006080250721424818 32:0.008555250242352486 33:0.01133550051599741 34:0.018917251378297806 35:0.023694001138210297 36:0.022085249423980713 37:0.020212501287460327 38:0.01744050160050392 39:0.01451175007969141 40:0.01347224973142147 41:0.01206975057721138 42:0.012729750946164131 43:0.011896500363945961 44:0.01060125045478344 45:0.008885250426828861 46:0.006666000001132488 47:0.00521400012075901 48:0.003209250047802925 49:0.006121499929577112 50:0.0 51:0.0 52:0.0 53:0.0 54:0.0 55:6.600000051548705E-5 56:2.5575002655386925E-4 57:0.0010064999805763364 58:0.004174500238150358 59:0.010452750138938427 60:0.01744050160050392 61:0.018909001722931862 62:0.01638450101017952 63:0.014891250990331173 64:0.014577750116586685 65:0.014751000329852104 66:0.017036249861121178 67:0.022184250876307487 68:0.01969275064766407 69:0.021763499826192856 70:0.021260250359773636 71:0.02648250199854374 72:0.06660225242376328 73:0.015947250649333 74:0.006121499929577112 75:0.0 
0.0 100.0 100.0 100.0 100.0 1:0.21993491053581238 2:0.06079418584704399 3:0.0403374545276165 4:0.002858182182535529 5:7.167272851802409E-4 6:2.612727403175086E-4 7:2.454545465297997E-4 8:8.890909521142021E-5 9:8.781818905845284E-5 10:3.3054547384381294E-4 11:1.0200000542681664E-4 12:5.8363639254821464E-5 13:9.218182822223753E-5 14:1.1454545892775059E-4 15:2.1818182722199708E-4 16:3.1745454180054367E-4 17:1.352727267658338E-4 18:1.0418182500870898E-4 19:2.3836364562157542E-4 20:1.2545454956125468E-4 21:2.809090947266668E-4 22:9.703637333586812E-4 23:0.001365818316116929 24:2.214545529568568E-4 25:0.0 26:0.2153509259223938 27:0.0017443636897951365 28:0.0019287272589281201 29:0.0027087274938821793 30:0.004144363570958376 31:0.00637527322396636 32:0.009450000710785389 33:0.012023454532027245 34:0.014059637673199177 35:0.014129454270005226 36:0.013353818096220493 37:0.010930363088846207 38:0.00847854558378458 39:0.005976000335067511 40:0.0038940003141760826 41:0.0024490910582244396 42:0.001411636476404965 43:7.647273596376181E-4 44:4.0527275996282697E-4 45:1.936363842105493E-4 46:1.036363682942465E-4 47:5.400000009103678E-5 48:3.545454819686711E-5 49:3.490909148240462E-5 50:0.0 51:0.0 52:5.454545544125722E-7 53:0.0 54:1.0909091088251444E-6 55:1.0363636647525709E-5 56:3.2781821209937334E-4 57:0.0013625454157590866 58:0.001425272785127163 59:0.0019963637460023165 60:0.004162363708019257 61:0.003979091066867113 62:0.0046429093927145 63:0.005966181866824627 64:0.0084905456751585 65:0.011834181845188141 66:0.01661672815680504 67:0.020858729258179665 68:0.022569818422198296 69:0.01938927359879017 70:0.01084036473184824 71:0.004307454917579889 72:9.720000671222806E-4 73:2.427272847853601E-4 74:0.1900036484003067 75:0.0 
0.0 35.32830850867473 100.0 62.78273052241118 0.0 1:0.012611228041350842 2:0.30000409483909607 3:0.016895798966288567 4:3.1288518221117556E-4 5:7.431023550452664E-5 6:0.0 7:0.0 8:0.0 9:0.0 10:0.0 11:0.0 12:0.0 13:0.0 14:0.0 15:0.0 16:0.0 17:0.0 18:0.0 19:0.0 20:0.0 21:0.0 22:9.777661944099236E-6 23:6.062150714569725E-5 24:3.128851676592603E-5 25:0.0 26:0.0 27:3.324405042803846E-5 28:4.7714990796521306E-4 29:0.007159204222261906 30:0.05100419744849205 31:0.06716080754995346 32:0.053454481065273285 33:0.04003170505166054 34:0.030621681362390518 35:0.023415545001626015 36:0.01693686656653881 37:0.011656928807497025 38:0.008539809845387936 39:0.0059037525206804276 40:0.004069462884217501 41:0.0029802315402776003 42:0.0019594435580074787 43:0.0013356286799535155 44:8.721674676053226E-4 45:5.67104434594512E-4 46:5.025718128308654E-4 47:3.598179609980434E-4 48:2.1315303456503898E-4 49:7.450578850694001E-4 50:0.0 51:1.955532297870377E-6 52:9.582109487382695E-5 53:6.375035736709833E-4 54:0.0018870887579396367 55:0.004364748485386372 56:0.007683286909013987 57:0.01153764221817255 58:0.015708792954683304 59:0.01915052905678749 60:0.022506222128868103 61:0.025433655828237534 62:0.0266851969063282 63:0.025990981608629227 64:0.025697652250528336 65:0.025245925411581993 66:0.025314368307590485 67:0.024631885811686516 68:0.023808607831597328 69:0.020466603338718414 70:0.014091567136347294 71:0.006725076120346785 72:0.001971176825463772 73:3.3830711618065834E-4 74:2.5421921236556955E-5 75:0.0 
0.0 38.25226146238305 47.11165045600636 0.0 1.5115246737568864 1:0.2213650941848755 2:0.04985082522034645 3:0.04730452969670296 4:0.004279192537069321 5:1.4146091416478157E-5 6:0.0 7:4.951131995767355E-5 8:0.0 9:0.0 10:0.0013085134560242295 11:0.0 12:2.8292182832956314E-5 13:0.0 14:4.2438270611455664E-5 15:8.275462896563113E-4 16:0.002892875811085105 17:0.0 18:0.0 19:2.1219135305727832E-5 20:2.1219135305727832E-5 21:0.0 22:0.0019875257275998592 23:7.0730457082390785E-6 24:0.0 25:0.0 26:0.2393377274274826 27:0.08294560760259628 28:0.007716692518442869 29:0.0 30:0.0 31:0.0 32:0.0 33:0.0 34:0.0 35:0.0 36:0.0 37:0.0 38:0.0 39:0.0 40:0.0 41:0.0 42:0.0 43:0.0 44:0.0 45:0.0 46:0.0 47:0.0 48:0.0 49:0.0 50:0.0 51:0.0 52:0.0 53:0.0 54:0.0 55:0.0 56:0.0 57:0.0 58:0.0 59:0.0 60:0.0 61:0.0 62:0.0 63:0.0 64:1.7682612815406173E-4 65:8.06327152531594E-4 66:0.004059928003698587 67:0.011069316416978836 68:0.022753987461328506 69:0.03576131910085678 70:0.019457947462797165 71:0.002871656557545066 72:0.0012377829989418387 73:0.22037488222122192 74:0.011430041864514351 75:0.0 
0.0 20.106082149150964 0.0 83.19080952319207 0.0 1:0.1534125953912735 2:0.01949036680161953 3:0.13728249073028564 4:0.007580856326967478 5:0.001670780940912664 6:7.875944720581174E-4 7:5.299118929542601E-4 8:9.767003211891279E-5 9:1.1845088010886684E-4 10:5.56926999706775E-4 11:2.1819899848196656E-4 12:0.0027098236605525017 13:3.761335101444274E-4 14:6.525189382955432E-4 15:5.403023096732795E-4 16:7.792821852490306E-4 17:2.3274560226127505E-4 18:3.179471241310239E-4 19:2.0573049550876021E-4 20:0.0017829976277425885 21:6.442065932787955E-5 22:4.426322702784091E-4 23:1.4962218119762838E-4 24:0.0 25:0.0 26:0.17120309174060822 27:0.003391436068341136 28:0.002233942272141576 29:0.0018827456515282393 30:0.0018515742849558592 31:0.0026557936798781157 32:0.010301071219146252 33:0.027717508375644684 34:0.03669899329543114 35:0.029219962656497955 36:0.01816454716026783 37:0.009762846864759922 38:0.00567525252699852 39:0.0029425693210214376 40:0.0018806675216183066 41:0.0012406171299517155 42:7.564231636933982E-4 43:5.922543932683766E-4 44:4.1146099101752043E-4 45:3.30415612552315E-4 46:2.3690176021773368E-4 47:1.6624685667920858E-4 48:1.4962218119762838E-4 49:5.340680363588035E-4 50:0.0 51:0.0 52:0.0 53:2.7015115847461857E-5 54:1.1845088010886684E-4 55:2.2027708473615348E-4 56:4.426322702784091E-4 57:8.540932321920991E-4 58:0.0011928211897611618 59:0.0019700252451002598 60:0.0029778967145830393 61:0.0048357052728533745 62:0.007254597265273333 63:0.010488098487257957 64:0.014768955297768116 65:0.018800441175699234 66:0.021574685350060463 67:0.022243831306695938 68:0.01947789639234543 69:0.01450296025723219 70:0.008599118329584599 71:0.004600882064551115 72:0.0026017632335424423 73:0.0048481738194823265 74:0.16759969294071198 75:0.0 
1.5443416939264911 0.0 0.0 0.0 0.0 1:1.9228935707360506E-4 2:0.04183027893304825 3:0.24472486972808838 4:0.017010526731610298 5:0.020620226860046387 6:0.004342665895819664 7:8.772612200118601E-4 8:1.249933266080916E-4 9:4.9304966523777694E-5 10:7.175446080509573E-5 11:3.136634768452495E-5 12:3.2520295007998357E-6 13:3.9863589336164296E-6 14:3.0946732749725925E-6 15:1.1382103366486263E-5 16:1.6365051124012098E-5 17:1.2063979966114857E-6 18:1.0490417707842425E-6 19:8.811951374809723E-6 20:3.409385726627079E-6 21:3.724098178281565E-6 22:4.920005812891759E-5 23:1.8987655494129285E-5 24:0.0 25:0.0 26:0.0030941488221287727 27:0.009864349849522114 28:0.023931318894028664 29:0.023034177720546722 30:0.015886427834630013 31:0.011708879843354225 32:0.013434186577796936 33:0.03542126342654228 34:0.06571239233016968 35:0.06243954226374626 36:0.04720839858055115 37:0.016640793532133102 38:0.0015601350460201502 39:6.247044075280428E-5 40:1.468658410885837E-6 41:5.2452090670840334E-8 42:0.0 43:0.0 44:0.0 45:0.0 46:0.0 47:0.0 48:0.0 49:0.0 50:0.0 51:0.0 52:0.0 53:0.0 54:0.0 55:1.2588501476784586E-6 56:3.392601211089641E-4 57:6.993961287662387E-4 58:4.910039715468884E-4 59:0.003275475464761257 60:0.00826088897883892 61:0.008164744824171066 62:0.01911553554236889 63:0.025154657661914825 64:0.027072202414274216 65:0.025545794516801834 66:0.0222789216786623 67:0.021471787244081497 68:0.0317649319767952 69:0.057597845792770386 70:0.050592873245477676 71:0.021627254784107208 72:0.00463151978328824 73:9.249926079064608E-4 74:9.89666092209518E-4 75:0.0 
-34.86081974973 69.8991456895184 24.35509149194804 53.71535852903398 60.36644637564214 1:0.0 2:0.0 3:0.0 4:0.0 5:0.0 6:0.0 7:0.0 8:0.0 9:0.0 10:0.0 11:0.0 12:0.0 13:0.0 14:0.0 15:0.0 16:0.0 17:0.0 18:0.0 19:0.0 20:0.0 21:0.0 22:0.0 23:0.0 24:0.0 25:0.0 26:0.0 27:0.0 28:0.0 29:0.0 30:0.0 31:0.0 32:0.0 33:0.0 34:0.0 35:0.0 36:0.0 37:0.0 38:0.0 39:0.0 40:0.0 41:0.0 42:0.0 43:0.0 44:0.0 45:0.0 46:0.0 47:0.0 48:0.0 49:0.0 50:0.0 51:0.0 52:0.0 53:0.0 54:0.0 55:0.0 56:0.0 57:0.0 58:0.0 59:0.0 60:0.0 61:0.0 62:0.0 63:0.0 64:0.0 65:0.0 66:0.0 67:0.0 68:0.0 69:0.0 70:0.0 71:0.0 72:0.0 73:0.0 74:0.0 75:0.0 
-82.01101744858956 46.49840705757445 50.432139216444455 41.500381258782205 100.0 1:0.0026888889260590076 2:0.1579192727804184 3:0.16668260097503662 4:0.002591111231595278 5:0.0 6:0.0 7:0.0 8:0.0 9:0.0 10:0.0 11:0.0 12:0.0 13:0.0 14:0.0 15:0.0 16:4.074074240634218E-6 17:0.0 18:0.0 19:0.0 20:8.148148481268436E-6 21:4.074074240634218E-6 22:1.2222222721902654E-5 23:5.296296512824483E-5 24:3.666666816570796E-5 25:0.0 26:4.074074240634218E-6 27:4.074074240634218E-6 28:4.4814816646976396E-5 29:1.7518518143333495E-4 30:3.829629858955741E-4 31:8.14814877230674E-4 32:0.001377037144266069 33:0.0018537037540227175 34:0.002432222245261073 35:0.003022962948307395 36:0.0035892592277377844 37:0.00494999997317791 38:0.006502222269773483 39:0.009569999761879444 40:0.011187407188117504 41:0.01356259360909462 42:0.01852888986468315 43:0.020627038553357124 44:0.018048148602247238 45:0.019042223691940308 46:0.021205557510256767 47:0.03096296265721321 48:0.05149630084633827 49:0.09061555564403534 50:0.0 51:4.074074240634218E-6 52:2.037037120317109E-5 53:4.8888890887610614E-5 54:3.829629858955741E-4 55:5.62222208827734E-4 56:0.001157037098892033 57:0.0014503704151138663 58:0.0013607407454401255 59:0.0018374074716120958 60:0.005011111032217741 61:0.011753704398870468 62:0.014666667208075523 63:0.014768518507480621 64:0.013831482268869877 65:0.012857778929173946 66:0.013285556808114052 67:0.015057777985930443 68:0.017449259757995605 69:0.01784851960837841 70:0.01958407461643219 71:0.02252555638551712 72:0.032075185328722 73:0.05004185438156128 74:0.06241888925433159 75:0.0 
-72.36551410543287 34.49291132631736 26.946632413652395 23.591190868897147 37.28974670897269 1:2.3650001094210893E-4 2:4.50999999884516E-4 3:0.06300250440835953 4:0.016076501458883286 5:0.0082609998062253 6:0.0020020001102238894 7:0.001133000012487173 8:0.0010010000551119447 9:0.001842500059865415 10:0.002414500107988715 11:0.004229499958455563 12:0.004114000126719475 13:0.008255500346422195 14:0.1273909956216812 15:0.08359450101852417 16:0.004361500032246113 17:0.0015180001500993967 18:2.200000199081842E-5 19:2.200000199081842E-5 20:5.500000497704605E-6 21:1.650000012887176E-5 22:4.400000398163684E-5 23:5.500000497704605E-6 24:0.0 25:0.0 26:0.22770550847053528 27:0.024233000352978706 28:0.0059785000048577785 29:0.003630000166594982 30:0.002893000142648816 31:0.0034485000651329756 32:0.0027665002271533012 33:0.0023430001456290483 34:0.0019415001152083278 35:0.0017105001024901867 36:0.0010450000409036875 37:8.19500011857599E-4 38:5.170000367797911E-4 39:3.6299999919719994E-4 40:3.5749998642131686E-4 41:3.0800001695752144E-4 42:1.9800002337433398E-4 43:1.8149999959859997E-4 44:3.0250000418163836E-4 45:2.6950001483783126E-4 46:3.905000048689544E-4 47:0.007166500668972731 48:0.03030500002205372 49:0.011126500554382801 50:0.0 51:0.0 52:0.0 53:0.0 54:0.0 55:0.0 56:0.0 57:0.0 58:0.0 59:0.0 60:0.0 61:0.0 62:0.0 63:0.0 64:0.0 65:1.650000012887176E-5 66:2.750000021478627E-5 67:3.5749998642131686E-4 68:7.810000097379088E-4 69:0.004900500178337097 70:0.013854499906301498 71:0.032323502004146576 72:0.06928899884223938 73:0.1710280030965805 74:0.037422001361846924 75:0.0 
-0.0 -10.818177974122845 0.0 100.0 89.76299954574984 1:0.08411143720149994 2:0.015375019982457161 3:0.10120701789855957 4:0.11203742027282715 5:0.006334641482681036 6:7.132470491342247E-4 7:6.374302902258933E-4 8:4.367131623439491E-4 9:2.587848575785756E-4 10:6.518924492411315E-4 11:1.3147410936653614E-4 12:2.958167460747063E-4 13:1.0057769395643845E-4 14:2.4870518245734274E-4 15:0.00168264948297292 16:0.0015632271533831954 17:5.223904736340046E-4 18:1.1503983841976151E-4 19:3.950797254219651E-4 20:3.4709167084656656E-4 21:7.1215137722902E-5 22:0.0012711355229839683 23:9.889043867588043E-4 24:5.031076143495739E-4 25:0.0 26:0.016897710040211678 27:0.00620009982958436 28:0.01252378523349762 29:0.034883808344602585 30:0.061940085142850876 31:0.04934946447610855 32:0.02581450156867504 33:0.011960200034081936 34:0.0067135063000023365 35:0.004137928131967783 36:0.0026608167681843042 37:0.002243605675175786 38:0.0016624901909381151 39:0.0011889642337337136 40:0.0012367331655696034 41:0.0011122709838673472 42:0.0014389841817319393 43:0.0016226095613092184 44:0.0019339841092005372 45:0.0037373704835772514 46:0.00619878526777029 47:0.012292391620576382 48:0.020834702998399734 49:0.041415221989154816 50:0.0 51:0.009484980255365372 52:0.009242410771548748 53:0.011074940674006939 54:0.013499103486537933 55:0.01535924430936575 56:0.01575717143714428 57:0.017086593434214592 58:0.01940010115504265 59:0.023946037515997887 60:0.033251337707042694 61:0.04846661537885666 62:0.0490906797349453 63:0.029598547145724297 64:0.013246015645563602 65:0.00544324703514576 66:0.002741454169154167 67:0.001735896454192698 68:0.0011904980055987835 69:9.759761160239577E-4 70:8.721116464585066E-4 71:7.627689628861845E-4 72:6.312948535196483E-4 73:7.228884496726096E-4 74:0.00642010010778904 75:0.0 
-100.0 -0.0 100.0 100.0 100.0 1:0.23942233622074127 2:0.053166668862104416 3:0.0043413336388766766 4:0.011946001090109348 5:0.0016463333740830421 6:8.286666707135737E-4 7:0.001129333395510912 8:3.0800001695752144E-4 9:5.610000225715339E-4 10:0.005907000042498112 11:0.003626333549618721 12:0.002529999939724803 13:2.3099999816622585E-4 14:1.6133332974277437E-4 15:5.940000410191715E-4 16:4.400000034365803E-4 17:9.166667587123811E-5 18:7.700000423938036E-5 19:2.2733333753421903E-4 20:0.0013090000720694661 21:1.9800002337433398E-4 22:9.313333430327475E-4 23:3.116666921414435E-4 24:1.4666667084384244E-5 25:0.0 26:0.24104666709899902 27:0.0043120002374053 28:0.0027536668349057436 29:0.0019066666718572378 30:0.0013493334408849478 31:0.0012063333997502923 32:9.496666607446969E-4 33:7.846666849218309E-4 34:6.929999799467623E-4 35:6.123333587311208E-4 36:5.610000225715339E-4 37:5.463333800435066E-4 38:7.956666522659361E-4 39:0.001294333371333778 40:0.0022880001924932003 41:0.004715333692729473 42:0.007879666984081268 43:0.010735999792814255 44:0.012232000939548016 45:0.010600333102047443 46:0.00906766764819622 47:0.005621000193059444 48:0.003787666792050004 49:0.00426066666841507 50:0.0 51:0.0 52:0.0 53:3.666666771096061E-6 54:4.7666671889601275E-5 55:7.516666664741933E-4 56:0.004916999954730272 57:0.012474000453948975 58:0.017156334593892097 59:0.015722667798399925 60:0.012367666698992252 61:0.007432333659380674 62:0.0031313335057348013 63:0.001235666684806347 64:8.433334296569228E-4 65:6.600000779144466E-4 66:7.810000097379088E-4 67:0.0012283334508538246 68:0.00137133349198848 69:0.001188000082038343 70:0.0011733333813026547 71:0.001415333477780223 72:0.0022146666888147593 73:0.01124566700309515 74:0.23263901472091675 75:0.0 
-82.4670689680374 -100.0 98.90765295628366 78.46568335495398 100.0 1:0.053592003881931305 2:0.05240224301815033 3:0.026898082345724106 4:0.019096000120043755 5:0.009662399999797344 6:0.004625279922038317 7:0.005568640306591988 8:0.0033616002183407545 9:0.005700640380382538 10:0.026422880589962006 11:0.023404480889439583 12:0.005764000117778778 13:0.004970240406692028 14:0.0035499201621860266 15:0.012043680064380169 16:0.011593121103942394 17:0.010765920393168926 18:0.006548960227519274 19:0.008807040750980377 20:0.0035851201973855495 21:0.0073761604726314545 22:0.014363360591232777 23:0.00961840059608221 24:2.798400237224996E-4 25:0.0 26:0.12979824841022491 27:0.05245856195688248 28:0.020160801708698273 29:0.013002880848944187 30:0.00900592003017664 31:0.007128000259399414 32:0.006151200272142887 33:0.005959360394626856 34:0.005994560196995735 35:0.006079040002077818 36:0.005492960102856159 37:0.005514080170542002 38:0.004551359917968512 39:0.003982880152761936 40:0.0034936002921313047 41:0.0036414400674402714 42:0.0033809600863605738 43:0.003808639943599701 44:0.004134240094572306 45:0.004834720399230719 46:0.0057692802511155605 47:0.007032960187643766 48:0.00719840032979846 49:0.011425919830799103 50:0.0 51:0.013150720857083797 52:0.01369808055460453 53:0.014483040198683739 54:0.016042400151491165 55:0.015239840373396873 56:0.0129360007122159 57:0.00976624060422182 58:0.009285761043429375 59:0.009002399630844593 60:0.008536000736057758 61:0.00842864066362381 62:0.007728160358965397 63:0.007082240656018257 64:0.00695200078189373 65:0.00916959997266531 66:0.014028960838913918 67:0.016911840066313744 68:0.016086401417851448 69:0.017629921436309814 70:0.012664960697293282 71:0.01629232056438923 72:0.021054880693554878 73:0.044202402234077454 74:0.009627200663089752 75:0.0 
-100.0 -0.0 100.0 0.0 90.15243452249936 1:0.21282067894935608 2:0.08323699980974197 3:0.0036740002688020468 4:0.0023943334817886353 5:9.496666607446969E-4 6:7.626667502336204E-4 7:7.590000750496984E-4 8:4.106666601728648E-4 9:5.756667233072221E-4 10:0.003054333385080099 11:0.003450333373621106 12:0.009603000245988369 13:6.746667204424739E-4 14:3.300000389572233E-4 15:3.4466665238142014E-4 16:3.8499999209307134E-4 17:1.5400000847876072E-4 18:1.320000010309741E-4 19:2.8600002406165004E-4 20:0.003949000034481287 21:2.9700002050958574E-4 22:0.00118433334864676 23:4.7300002188421786E-4 24:9.900001168716699E-5 25:0.0 26:0.19801834225654602 27:0.004532000049948692 28:0.0019030000548809767 29:0.00118433334864676 30:8.653333643451333E-4 31:7.040000637061894E-4 32:6.929999799467623E-4 33:5.68333372939378E-4 34:5.866666906513274E-4 35:7.113334140740335E-4 36:9.826667373999953E-4 37:0.001246666768565774 38:0.002097333548590541 39:0.0038206668104976416 40:0.006570666562765837 41:0.010373000055551529 42:0.013460333459079266 43:0.015407334081828594 44:0.014648334123194218 45:0.013504333794116974 46:0.010538000613451004 47:0.008162000216543674 48:0.006354333832859993 49:0.01306800078600645 50:0.0 51:0.0 52:2.200000199081842E-5 53:9.166667587123811E-5 54:5.170000367797911E-4 55:0.0014080001274123788 56:0.0037180001381784678 57:0.007351667154580355 58:0.012312667444348335 59:0.01570066623389721 60:0.017490001395344734 61:0.01694733463227749 62:0.014094667509198189 63:0.011806666851043701 64:0.00865333341062069 65:0.006046333350241184 66:0.003626333549618721 67:0.002310000127181411 68:0.0015326666180044413 69:0.0010376666905358434 70:9.826667373999953E-4 71:0.0010376666905358434 72:0.0010633333586156368 73:0.003864666912704706 74:0.19838500022888184 75:0.0 
-100.0 -40.07228609928737 41.349485233930494 93.74926220187596 98.48768442755512 1:0.038196954876184464 2:0.07399207353591919 3:0.19968339800834656 4:0.01759779080748558 5:9.695122571429238E-5 6:1.6006098348952946E-6 7:2.2865854987230705E-7 8:0.0 9:1.143292706728971E-6 10:4.573170997446141E-7 11:1.143292706728971E-6 12:1.143292706728971E-6 13:0.0 14:2.2865854987230705E-7 15:0.0 16:0.0 17:0.0 18:0.0 19:2.0579268493747804E-6 20:5.030487955082208E-6 21:5.716463419958018E-6 22:1.6234756913036108E-5 23:2.3437500931322575E-4 24:1.6349085490219295E-4 25:0.0 26:1.6234756913036108E-5 27:1.5548781448160298E-5 28:9.923781180987135E-5 29:3.256097552366555E-4 30:7.060976349748671E-4 31:0.0049408539198338985 32:0.0859113559126854 33:0.05852378159761429 34:0.03246951475739479 35:0.014291158877313137 36:0.007985671050846577 37:0.004665091633796692 38:0.004065091721713543 39:0.0037941313348710537 40:0.00423384178429842 41:0.005259603727608919 42:0.006328354123979807 43:0.008822333067655563 44:0.011575610376894474 45:0.015032242052257061 46:0.0177621953189373 47:0.017898933961987495 48:0.014050839468836784 49:0.01122667733579874 50:0.0 51:2.0579268493747804E-6 52:5.737043102271855E-4 53:0.0033315548207610846 54:0.00827240850776434 55:0.013331021182239056 56:0.021266844123601913 57:0.020049238577485085 58:0.015335671603679657 59:0.01287141814827919 60:0.009997866116464138 61:0.009296799078583717 62:0.008420121856033802 63:0.00799093022942543 64:0.014133156277239323 65:0.008358384482562542 66:0.007769360207021236 67:0.010956859216094017 68:0.025295808911323547 69:0.04112126678228378 70:0.07650686055421829 71:0.014908995479345322 72:3.452744203968905E-5 73:6.265244155656546E-5 74:1.1250000534346327E-4 75:0.0 
-52.90580135576583 -0.0 96.16179470043707 74.97037511208035 0.0 1:0.265655517578125 2:0.030184000730514526 3:0.002755500143393874 4:0.003387999953702092 5:8.46999988425523E-4 6:5.775000317953527E-4 7:4.675000091083348E-4 8:1.8699999782256782E-4 9:2.2000000171829015E-4 10:0.0012374999932944775 11:6.160000339150429E-4 12:0.0036685001105070114 13:1.8699999782256782E-4 14:3.0800001695752144E-4 15:3.905000048689544E-4 16:4.950000438839197E-4 17:2.0350002159830183E-4 18:2.9700002050958574E-4 19:3.4649998997338116E-4 20:0.0063195000402629375 21:7.259999983943999E-4 22:0.00444400031119585 23:0.00551650021225214 24:9.625000529922545E-4 25:0.0 26:0.21740952134132385 27:0.004889500327408314 28:0.002568500116467476 29:0.0015950000379234552 30:0.0012485000770539045 31:0.0010450000409036875 32:0.0010450000409036875 33:0.0012649999698624015 34:0.0017050000606104732 35:0.002359500154852867 36:0.0034650000743567944 37:0.00551650021225214 38:0.007381000556051731 39:0.009471000172197819 40:0.011055001057684422 41:0.01150600053369999 42:0.010119999758899212 43:0.00909150019288063 44:0.007073000073432922 45:0.0053460001945495605 46:0.0039160000160336494 47:0.0028710002079606056 48:0.0017820000648498535 49:0.006275500170886517 50:0.0 51:1.100000099540921E-5 52:4.675000091083348E-4 53:0.002552000107243657 54:0.007628500461578369 55:0.012518000788986683 56:0.016093000769615173 57:0.016296500340104103 58:0.01263350062072277 59:0.009707500226795673 60:0.007276500575244427 61:0.005384500604122877 62:0.004620000254362822 63:0.003333000000566244 64:0.0022605000995099545 65:0.0016005000798031688 66:0.0010670000920072198 67:0.00101200002245605 68:0.001105500035919249 69:0.0011660000309348106 70:0.001243000035174191 71:0.001749000046402216 72:0.00297550018876791 73:0.010939500294625759 74:0.20635999739170074 75:0.0 
-0.0 -0.0 0.0 0.0 25.42768275800935 1:0.28641679883003235 2:0.013625390827655792 3:0.0036738282069563866 4:0.005323828663676977 5:0.0016371094388887286 6:0.0011601562146097422 7:0.0010183594422414899 8:3.6093752714805305E-4 9:2.707031380850822E-4 10:0.0012374999932944775 11:7.218750542961061E-4 12:0.0019078125478699803 13:9.023438178701326E-5 14:2.1914063836447895E-4 15:4.5117188710719347E-4 16:9.28125053178519E-4 17:1.4179687423165888E-4 18:2.707031380850822E-4 19:4.769531369674951E-4 20:0.0044472659938037395 21:2.1914063836447895E-4 22:0.003003515535965562 23:0.001830468769185245 24:5.671874969266355E-4 25:0.0 26:0.2248898595571518 27:0.005594531539827585 28:0.003158203326165676 29:0.002178515773266554 30:0.001533984555862844 31:0.001134374993853271 32:9.667968843132257E-4 33:0.0010054687736555934 34:9.796875528991222E-4 35:0.0010957032209262252 36:0.001250390661880374 37:0.0013792969984933734 38:0.0019207032164558768 39:0.00366093753837049 40:0.00683203199878335 41:0.010286719538271427 42:0.015507422387599945 43:0.014424609020352364 44:0.012387890368700027 45:0.00845625065267086 46:0.004679297097027302 47:0.0028875002171844244 48:0.0015082031022757292 49:0.0022816406562924385 50:0.0 51:0.0 52:1.2890624930150807E-5 53:0.0019207032164558768 54:0.023602735251188278 55:0.031839847564697266 56:0.02164336107671261 57:0.008649609982967377 58:0.002436328213661909 59:0.001340624992735684 60:0.0010699218837544322 61:0.0010183594422414899 62:9.410156635567546E-4 63:8.249999955296516E-4 64:0.001044140662997961 65:0.0011988282203674316 66:0.0011214844416826963 67:7.863281643949449E-4 68:0.0010570313315838575 69:0.001134374993853271 70:0.0013277344405651093 71:0.0013535156613215804 72:0.0023203124292194843 73:0.009603516198694706 74:0.2137523591518402 75:0.0 
-56.76549081377892 -3.100327778094021 -8.205030203117966 4.276918349152066 26.05668784936196 1:0.11264046281576157 2:0.07626742869615555 3:0.002409958513453603 4:0.00838807038962841 5:0.012173029594123363 6:7.531120354542509E-5 7:1.9740663992706686E-4 8:5.819502257509157E-5 9:8.786307444097474E-5 10:8.033195044845343E-4 11:2.578838320914656E-4 12:1.3122407835908234E-4 13:3.845435567200184E-4 14:0.01131950318813324 15:0.017208609730005264 16:0.007882572710514069 17:0.06929201632738113 18:0.0016773859970271587 19:0.001549585023894906 20:9.69917091424577E-5 21:9.413901134394109E-4 22:0.0037952284328639507 23:0.002298132749274373 24:6.390042108250782E-5 25:0.0 26:0.22611163556575775 27:0.004260788671672344 28:0.0015347511507570744 29:9.756224462762475E-4 30:7.64522876124829E-4 31:6.618257611989975E-4 32:6.515560671687126E-4 33:6.275933701545E-4 34:7.896265597082675E-4 35:0.0013750001089647412 36:0.002698651747778058 37:0.005415560211986303 38:0.00904304999858141 39:0.012262034229934216 40:0.014244087040424347 41:0.01384470984339714 42:0.011295539326965809 43:0.008559232577681541 44:0.006012344732880592 45:0.003905912861227989 46:0.002307261573150754 47:0.0013213693164288998 48:6.76659750752151E-4 49:6.606846582144499E-4 50:0.0 51:0.0 52:0.0 53:0.0 54:1.2551867257570848E-5 55:2.3848548880778253E-4 56:0.0010144191328436136 57:0.0014240663731470704 58:0.002431639237329364 59:0.004380601923912764 60:0.006315872073173523 61:0.008081121370196342 62:0.009459543973207474 63:0.01040207501500845 64:0.01084709633141756 65:0.010819709859788418 66:0.010300518944859505 67:0.008684751577675343 68:0.007240145467221737 69:0.005088070873171091 70:0.003875104011967778 71:0.009846369735896587 72:0.21857593953609467 73:9.242739179171622E-4 74:3.7655601772712544E-5 75:0.0 
-0.0 -0.0 -9.647638412705797 0.0 0.0 1:0.17315232753753662 2:0.137892484664917 3:0.0039758398197591305 4:0.0025819200091063976 5:5.702400230802596E-4 6:4.5936001697555184E-4 7:4.5936001697555184E-4 8:1.7952000780496746E-4 9:2.3232001694850624E-4 10:5.860800156369805E-4 11:4.3296001967974007E-4 12:0.0031680003739893436 13:4.4880001223646104E-4 14:4.5408002915792167E-4 15:5.227199872024357E-4 16:4.3824000749737024E-4 17:1.7952000780496746E-4 18:1.531200105091557E-4 19:2.0064000273123384E-4 20:0.0021753599867224693 21:2.2176001220941544E-4 22:6.811199709773064E-4 23:6.494400440715253E-4 24:1.8480001017451286E-4 25:0.0 26:0.12898513674736023 27:0.0022915201261639595 28:0.0010612800251692533 29:9.345600265078247E-4 30:8.659200393594801E-4 31:8.184000616893172E-4 32:0.0010137601057067513 33:0.0015576001023873687 34:0.0029937601648271084 35:0.005422560498118401 36:0.011209441348910332 37:0.022281600162386894 38:0.033871203660964966 39:0.038279999047517776 40:0.031912319362163544 41:0.02115696109831333 42:0.01249776128679514 43:0.0065049598924815655 44:0.0031944001093506813 45:0.0014414400793612003 46:7.233599899336696E-4 47:3.379200061317533E-4 48:2.5344002642668784E-4 49:3.907200298272073E-4 50:0.0 51:0.0 52:5.280000095808646E-6 53:1.0560000191617291E-5 54:5.808000423712656E-5 55:1.372800034005195E-4 56:3.062400210183114E-4 57:8.81760090123862E-4 58:0.0017054399941116571 59:0.0035323200281709433 60:0.005522880703210831 61:0.00759792048484087 62:0.010707841254770756 63:0.014688960276544094 64:0.019044959917664528 65:0.022598400712013245 66:0.026595361530780792 67:0.028554242104291916 68:0.02600928023457527 69:0.017952000722289085 70:0.008627519942820072 71:0.0038332801777869463 72:0.001689600059762597 73:0.0025819200091063976 74:0.12735888361930847 75:0.0 
-38.63349803866521 -0.0 -42.95444828190634 0.0 31.796269863216494 1:0.08857551962137222 2:0.1521730273962021 3:0.018104078248143196 4:0.0073903570882976055 5:0.0011351807042956352 6:3.8913576281629503E-4 7:5.341552896425128E-4 8:1.981933746719733E-4 9:2.2558594355359674E-4 10:0.0024862794671207666 11:4.270019999239594E-4 12:2.48950207605958E-4 13:4.8742679064162076E-4 14:6.131103727966547E-4 15:0.02369055151939392 16:0.013716431334614754 17:5.478516104631126E-4 18:3.399902197998017E-4 19:0.0010481689823791385 20:1.5227051335386932E-4 21:6.090820534154773E-4 22:0.010710498318076134 23:0.005144970957189798 24:0.001052197301760316 25:0.0 26:0.14368857443332672 27:0.01507880911231041 28:0.006244702730327845 29:0.0036037354730069637 30:0.0026957520749419928 31:0.002350927796214819 32:0.0019231202313676476 33:0.0018071045633405447 34:0.0018071045633405447 35:0.0018804200226441026 36:0.0020367188844829798 37:0.002399267628788948 38:0.0028987794648855925 39:0.003799511818215251 40:0.0045318603515625 41:0.005841870326548815 42:0.0070632570423185825 43:0.008698754943907261 44:0.010177148506045341 45:0.01228315569460392 46:0.015019995160400867 47:0.018656764179468155 48:0.021696534007787704 49:0.0338161401450634 50:0.0 51:1.3696290261577815E-4 52:3.915527486242354E-4 53:6.550049292854965E-4 54:0.0010868408717215061 55:0.002000463893637061 56:0.003361230716109276 57:0.005157056264579296 58:0.0070261964574456215 59:0.008582739159464836 60:0.010409986600279808 61:0.011879516765475273 62:0.013452173210680485 63:0.01383969746530056 64:0.014006470330059528 65:0.013354687951505184 66:0.012934130616486073 67:0.012195336632430553 68:0.01232907734811306 69:0.01627199724316597 70:0.04890139028429985 71:0.06187419593334198 72:0.05963122844696045 73:4.036377358715981E-4 74:1.1843262473121285E-4 75:0.0 
-100.0 -7.4882282708280625 -0.0 0.0 0.0 1:0.0206978190690279 2:0.2340969741344452 3:0.07153855264186859 4:0.0026300624012947083 5:1.5634736337233335E-4 6:2.355919059482403E-5 7:1.2850467101088725E-5 8:2.570093420217745E-5 9:6.4252335505443625E-6 10:1.2850467101088725E-5 11:4.2834894884435926E-6 12:0.0 13:2.1417447442217963E-6 14:8.566978976887185E-6 15:1.0708723493735306E-5 16:1.0708723493735306E-5 17:4.2834894884435926E-6 18:1.2850467101088725E-5 19:1.0708723493735306E-5 20:1.0708723493735306E-5 21:2.7842681447509676E-5 22:6.853583181509748E-5 23:4.4762465404346585E-4 24:1.7990655032917857E-4 25:0.0 26:8.566978976887185E-6 27:5.568536289501935E-5 28:1.9489876285661012E-4 29:6.939252489246428E-4 30:0.001955412793904543 31:0.004420560784637928 32:0.008586253970861435 33:0.014199767261743546 34:0.020524337887763977 35:0.026848910376429558 36:0.03092464990913868 37:0.032890770584344864 38:0.03429147228598595 39:0.03246670588850975 40:0.029795950278639793 41:0.02557029016315937 42:0.02087344415485859 43:0.0158553346991539 44:0.011289135552942753 45:0.00743185356259346 46:0.004392718430608511 47:0.0026386294048279524 48:0.001563473604619503 49:0.0025272585917264223 50:0.0 51:9.423676237929612E-5 52:1.9918225007131696E-4 53:2.2702492424286902E-4 54:3.4053740091621876E-4 55:4.112149472348392E-4 56:6.082554464228451E-4 57:8.309968980029225E-4 58:0.0011693926062434912 59:0.0015784658025950193 60:0.002064641797915101 61:0.002805685391649604 62:0.003728777403011918 63:0.0049474299885332584 64:0.006562305148690939 65:0.008871106430888176 66:0.012282906100153923 67:0.016812695190310478 68:0.0235377736389637 69:0.03257165476679802 70:0.04435553029179573 71:0.05562324821949005 72:0.05798773840069771 73:0.0387805700302124 74:0.013608645647764206 75:0.0 
-61.72355320617483 -0.0 -100.0 100.0 34.70435084096235 1:0.20204128324985504 2:0.08328883349895477 3:0.01000702753663063 4:0.007396757137030363 5:0.001976036000996828 6:0.0010068468982353806 7:0.0010028829565271735 8:3.2900902442634106E-4 9:3.329729661345482E-4 10:0.0015399999683722854 11:7.472072611562908E-4 12:0.004088828805834055 13:7.392793195322156E-4 14:7.313513779081404E-4 15:8.363964152522385E-4 16:0.002560720779001713 17:5.589189240708947E-4 18:0.0011515315854921937 19:0.003226666711270809 20:0.002887747948989272 21:8.542342693544924E-4 22:0.0019502703798934817 23:6.956756697036326E-4 24:4.9549551476957276E-5 25:0.0 26:0.23387587070465088 27:0.004425765946507454 28:0.0020751352421939373 29:0.0019066666718572378 30:0.00245765782892704 31:0.0034228831063956022 32:0.0049569373950362206 33:0.006522702984511852 34:0.007204504683613777 35:0.007424504496157169 36:0.007343243341892958 37:0.007295676041394472 38:0.006732792593538761 39:0.006290811114013195 40:0.005563423503190279 41:0.005081802140921354 42:0.004065045155584812 43:0.0034902705810964108 44:0.0028441441245377064 45:0.002116756746545434 46:0.001650991034694016 47:0.001260540564544499 48:0.00100090098567307 49:9.909910149872303E-4 50:0.0 51:3.963963990827324E-6 52:3.963963990827324E-6 53:2.180180308641866E-5 54:3.765765723073855E-5 55:9.711712482385337E-5 56:1.22882891446352E-4 57:1.8630630802363157E-4 58:3.706306451931596E-4 59:5.747748073190451E-4 60:9.39459481742233E-4 61:0.0015558559680357575 62:0.0021326125133782625 63:0.0030918919946998358 64:0.0036765767727047205 65:0.004247387405484915 66:0.005212612450122833 67:0.0057834237813949585 68:0.006635675672441721 69:0.008292612619698048 70:0.009832613170146942 71:0.011969190090894699 72:0.01370937004685402 73:0.022321082651615143 74:0.22918055951595306 75:0.0 
-100.0 -0.0 -100.0 100.0 100.0 1:0.1624431610107422 2:0.07943100482225418 3:0.05478792265057564 4:0.02105136029422283 5:0.005199480336159468 6:8.461200050078332E-4 7:5.649600061587989E-4 8:1.2804000289179385E-4 9:1.1748000542866066E-4 10:4.2768000275827944E-4 11:1.4916001236997545E-4 12:5.662800394929945E-4 13:9.240000508725643E-5 14:8.844000694807619E-5 15:2.2176001220941544E-4 16:6.560400361195207E-4 17:1.6632000915706158E-4 18:1.6500001947861165E-4 19:3.286800056230277E-4 20:0.0010969199938699603 21:1.5048000204842538E-4 22:9.609600529074669E-4 23:3.590400156099349E-4 24:1.3200000239521614E-6 25:0.0 26:0.195696622133255 27:0.013858679682016373 28:0.00781572051346302 29:0.005488560069352388 30:0.004362600389868021 31:0.003680160269141197 32:0.0029977201484143734 33:0.0027152402326464653 34:0.0025502401404082775 35:0.002783880103379488 36:0.0037963201757520437 37:0.007055400405079126 38:0.01247267983853817 39:0.01771836169064045 40:0.017004240304231644 41:0.013085161335766315 42:0.00802560057491064 43:0.004502519965171814 44:0.002344320062547922 45:0.001054679974913597 46:5.742000066675246E-4 47:2.3364000662695616E-4 48:1.1880000965902582E-4 49:6.46800035610795E-5 50:0.0 51:0.0 52:0.0 53:1.3200000239521614E-6 54:2.772000152617693E-5 55:1.9536001491360366E-4 56:0.0012685200199484825 57:0.0036537600681185722 58:0.0072850799188017845 59:0.010624680668115616 60:0.013122119940817356 61:0.013949761167168617 62:0.013269960880279541 63:0.011008800938725471 64:0.007747080642729998 65:0.005393519997596741 66:0.0042649200186133385 67:0.004107839893549681 68:0.004177799914032221 69:0.004741440527141094 70:0.005757840350270271 71:0.007378800772130489 72:0.01008348073810339 73:0.020144520327448845 74:0.18179568648338318 75:0.0 
-0.0 -0.0 -4.742473145926887 0.0 0.0 1:0.02959374710917473 2:0.13722018897533417 3:0.011654771864414215 4:0.0011872798204421997 5:2.083857834804803E-4 6:6.377643148880452E-5 7:7.712498336331919E-5 8:1.4831727639830206E-5 9:1.557331415824592E-5 10:1.980035740416497E-4 11:2.3730763132334687E-5 12:1.409014112141449E-5 13:2.521393798815552E-5 14:8.083292050287127E-5 15:5.969770718365908E-4 16:0.010007708333432674 17:0.0017723914934322238 18:0.002308558439835906 19:0.03935673087835312 20:2.958929690066725E-4 21:0.008207878097891808 22:0.06259582191705704 23:0.0243625957518816 24:1.1791223369073123E-4 25:0.0 26:0.18043315410614014 27:0.01262254174798727 28:0.004885571077466011 29:0.003381633898243308 30:0.002634114818647504 31:0.002298917854204774 32:0.0019748446065932512 33:0.0018346848664805293 34:0.0016885922523215413 35:0.0016485464293509722 36:0.0016960081411525607 37:0.0019563050009310246 38:0.002241815673187375 39:0.003220709739252925 40:0.00704581243917346 41:0.01807023584842682 42:0.02921702153980732 43:0.027988212183117867 44:0.01568826101720333 45:0.006345013622194529 46:0.001977069303393364 47:5.977186374366283E-4 48:2.039362589130178E-4 49:3.4928720560856164E-4 50:0.0 51:8.899036401999183E-6 52:8.602402522228658E-5 53:1.6314900130964816E-4 54:2.3434130707755685E-4 55:4.100973019376397E-4 56:5.272679263725877E-4 57:6.118087912909687E-4 58:8.906452567316592E-4 59:8.884205017238855E-4 60:0.0013793506659567356 61:0.008120371028780937 62:0.038969624787569046 63:0.0460747629404068 64:0.014983011409640312 65:0.00427227932959795 66:0.002357503166422248 67:0.0020527110900729895 68:0.002162465825676918 69:0.0023782674688845873 70:0.002724588382989168 71:0.004068342968821526 72:0.030432481318712234 73:0.16392545402050018 74:0.002278153318911791 75:0.0 
-0.0 -0.0 -35.76000116636037 0.0 0.0 1:0.1502278596162796 2:0.1288495510816574 3:0.04806841164827347 4:3.930762177333236E-4 5:0.0 6:0.0 7:2.3797537141945213E-4 8:0.0 9:3.753963392227888E-4 10:0.0 11:0.0 12:1.7850664153229445E-4 13:8.107637404464185E-4 14:7.197523955255747E-4 15:0.0 16:0.0 17:0.0 18:0.0 19:0.0 20:0.0 21:0.0 22:1.3872688577976078E-4 23:0.0 24:0.0 25:0.0 26:0.15065327286720276 27:0.0027008044999092817 28:0.0010105666005983949 29:6.809772457927465E-4 30:6.071435636840761E-4 31:7.936864858493209E-4 32:5.160318687558174E-4 33:0.0012992712436243892 34:9.268884314224124E-4 35:0.0017584461020305753 36:0.004016349092125893 37:0.006997319869697094 38:0.013656712137162685 39:0.020928271114826202 40:0.021421097218990326 41:0.025279434397816658 42:0.02420186437666416 43:0.013752846978604794 44:0.012604557909071445 45:0.00783691368997097 46:0.004932991694658995 47:0.005503569729626179 48:0.0019771342631429434 49:0.005943859461694956 50:0.0 51:0.0 52:0.0 53:0.0 54:4.4611594057641923E-4 55:0.0011644619517028332 56:0.0045179156586527824 57:0.010720343329012394 58:0.010945661924779415 59:0.01222624909132719 60:0.021625924855470657 61:0.009625094011425972 62:0.010370060801506042 63:0.017593098804354668 64:0.01008316408842802 65:0.011088808998465538 66:0.016524069011211395 67:0.010704371146857738 68:0.012607872486114502 69:0.008251487277448177 70:0.00561537453904748 71:0.004401790909469128 72:0.0014712483389303088 73:7.223642314784229E-4 74:0.14929454028606415 75:0.0 
-0.0 -0.0 -5.862517495835983 0.0 0.0 1:0.07925347238779068 2:0.21827171742916107 3:0.030502084642648697 4:6.512153195217252E-4 5:1.0121527884621173E-4 6:1.5277777492883615E-5 7:1.7187501725857146E-5 8:2.4826389562804252E-5 9:1.336805598839419E-5 10:5.347222395357676E-5 11:1.7187501725857146E-5 12:5.9201393014518544E-5 13:3.819444464170374E-5 14:5.347222395357676E-5 15:5.9201393014518544E-5 16:6.493055843748152E-5 17:5.729167241952382E-6 18:1.1458334483904764E-5 19:2.1006944734835997E-5 20:2.8645834390772507E-5 21:2.4826389562804252E-5 22:1.0312499944120646E-4 23:3.1510417466051877E-4 24:2.940972335636616E-4 25:0.0 26:0.0012756944634020329 27:0.0010904513765126467 28:0.003666666802018881 29:0.007495660334825516 30:0.0049347225576639175 31:0.004333159886300564 32:0.005370139144361019 33:0.00475902808830142 34:0.004434375092387199 35:0.004273958504199982 36:0.004146006889641285 37:0.005165798589587212 38:0.013686980120837688 39:0.023655729368329048 40:0.030861111357808113 41:0.04154600948095322 42:0.04350729286670685 43:0.04163958504796028 44:0.03178541734814644 45:0.021893056109547615 46:0.011863194406032562 47:0.006330728996545076 48:0.004203298594802618 49:0.008081944659352303 50:0.0 51:1.260416756849736E-4 52:4.8125002649612725E-4 53:7.276041433215141E-4 54:0.003662847215309739 55:0.01102482620626688 56:0.02102031372487545 57:0.011085938662290573 58:0.010975174605846405 59:0.011886111460626125 60:0.01491493172943592 61:0.016801737248897552 62:0.01850711740553379 63:0.019118228927254677 64:0.019759897142648697 65:0.02328142523765564 66:0.031099826097488403 67:0.02970000170171261 68:0.02260538376867771 69:0.0194123275578022 70:0.017594270408153534 71:0.016387326642870903 72:0.0065809027291834354 73:0.0021656251046806574 74:0.0010809027589857578 75:0.0 
-100.0 -10.799372758158464 -100.0 100.0 100.0 1:0.21214191615581512 2:0.0414891354739666 3:0.04907488077878952 4:0.014400966465473175 5:0.0014480677200481296 6:6.841787835583091E-4 7:5.778985796496272E-4 8:2.1920290600974113E-4 9:5.978261469863355E-5 10:5.64613554161042E-4 11:2.4577294243499637E-4 12:0.0031950483098626137 13:4.7161837574094534E-4 14:5.181159358471632E-4 15:5.380435031838715E-4 16:0.001076087006367743 17:1.5942029131110758E-4 18:2.3248793149832636E-4 19:2.922705316450447E-4 20:0.0014746376546099782 21:4.583333502523601E-4 22:5.181159358471632E-4 23:1.5942029131110758E-4 24:0.0 25:0.0 26:0.23297284543514252 27:0.010807367041707039 28:0.006615942344069481 29:0.005221014376729727 30:0.004516908433288336 31:0.0037065220531076193 32:0.003440821310505271 33:0.003726449329406023 34:0.004935386590659618 35:0.0036932367365807295 36:0.003035628003999591 37:0.0033611110411584377 38:0.0030223431531339884 39:0.0031485508661717176 40:0.005147946998476982 41:0.007067632861435413 42:0.006270531564950943 43:0.006071256007999182 44:0.004251208156347275 45:0.002490942133590579 46:0.0016539855860173702 47:8.900966495275497E-4 48:4.981884267181158E-4 49:0.0034541066270321608 50:0.0 51:0.006848429795354605 52:7.572463946416974E-4 53:0.0010628020390868187 54:0.0012687199050560594 55:0.0012089372612535954 56:0.0017934783827513456 57:0.003679951885715127 58:0.004158212803304195 59:0.005845411214977503 60:0.0055332123301923275 61:0.0050682369619607925 62:0.005599637981504202 63:0.005380434915423393 64:0.005606280639767647 65:0.005566425155848265 66:0.005785627756267786 67:0.005426932591944933 68:0.006091183517128229 69:0.0059184785932302475 70:0.006024758331477642 71:0.006057971157133579 72:0.004344203043729067 73:0.006855072919279337 74:0.22411836683750153 75:0.0 
-100.0 -44.928634710275844 -0.0 0.0 22.376640876877364 1:0.03545639291405678 2:0.1937543898820877 3:0.07487443834543228 4:0.011237092316150665 5:0.0030077695846557617 6:8.325814851559699E-4 7:5.182957393117249E-4 8:2.2606518177781254E-4 9:1.9573936879169196E-4 10:3.7493734271265566E-4 11:1.5989976236596704E-4 12:6.616541213588789E-5 13:1.3784461771138012E-4 14:1.764411135809496E-4 15:4.1353385313414037E-4 16:3.5563911660574377E-4 17:3.170426352880895E-4 18:3.418546402826905E-4 19:9.152882266789675E-4 20:3.887218190357089E-4 21:0.0010944862151518464 22:0.002511529019102454 23:0.002456391230225563 24:1.8746867135632783E-4 25:0.0 26:0.11526566743850708 27:0.02283809706568718 28:0.007518045604228973 29:0.004562656860798597 30:0.0035260654985904694 31:0.002927819499745965 32:0.0027127820067107677 33:0.0025583961978554726 34:0.0026631581131368876 35:0.002767919795587659 36:0.0032696742564439774 37:0.004157393705099821 38:0.005568922497332096 39:0.0077496240846812725 40:0.010352130979299545 41:0.013456391170620918 42:0.016091981902718544 43:0.018256140872836113 44:0.019165916368365288 45:0.01839398592710495 46:0.016442105174064636 47:0.012995989993214607 48:0.008844111114740372 49:0.00791503768414259 50:0.0 51:0.0 52:1.102756959880935E-5 53:1.764411135809496E-4 54:7.333334069699049E-4 55:0.0017230577068403363 56:0.0030656643211841583 57:0.0041325814090669155 58:0.005180201027542353 59:0.00652832118794322 60:0.007374687120318413 61:0.008780702017247677 62:0.009866917505860329 63:0.010897994972765446 64:0.012163408100605011 65:0.014062907546758652 66:0.014972682110965252 67:0.0161167923361063 68:0.016508271917700768 69:0.016318045556545258 70:0.014280701987445354 71:0.012541103176772594 72:0.015127068385481834 73:0.13148722052574158 74:0.007950876839458942 75:0.0 
-100.0 -35.4172996046885 -29.246824184797912 4.69147910915934 0.0 1:0.024939104914665222 2:0.1558508276939392 3:0.02407078631222248 4:0.010671822354197502 5:0.01404921617358923 6:0.005244502332061529 7:0.003048979677259922 8:9.338173185824417E-6 9:2.464751887600869E-4 10:0.0054413932375609875 11:0.0036766098346561193 12:5.637100548483431E-4 13:0.00861650425940752 14:0.06198114529252052 15:0.00789470225572586 16:7.232481148093939E-4 17:2.3555872030556202E-4 18:1.377051812596619E-4 19:2.1622476924676448E-4 20:7.273253868333995E-5 21:2.1556713909376413E-4 22:7.855903240852058E-4 23:0.001209885347634554 24:9.837962716119364E-5 25:0.0 26:0.05325915664434433 27:0.034719858318567276 28:0.028820762410759926 29:0.013830361887812614 30:0.008226142264902592 31:0.008274015970528126 32:0.01019689068198204 33:0.014821786433458328 34:0.021122949197888374 35:0.02620580792427063 36:0.02767111174762249 37:0.02467934601008892 38:0.01972537860274315 39:0.014570312574505806 40:0.009803767316043377 41:0.006352194119244814 42:0.0037336910609155893 43:0.0020530829206109047 44:0.0010585017735138535 45:5.145202158018947E-4 46:2.2490530682262033E-4 47:8.825231634546071E-5 48:3.3012416679412127E-5 49:1.4204546459950507E-5 50:0.0 51:1.446759370082873E-6 52:1.473064039601013E-4 53:9.464436443522573E-4 54:0.0021439658012241125 55:0.0036044036969542503 56:0.005495712626725435 57:0.008126973174512386 58:0.011609453707933426 59:0.015784669667482376 60:0.01968960464000702 61:0.02222919464111328 62:0.02409735508263111 63:0.02406592108309269 64:0.02233533374965191 65:0.020930133759975433 66:0.017975589260458946 67:0.015175189822912216 68:0.02742753177881241 69:0.030086413025856018 70:0.029243873432278633 71:0.014949890784919262 72:0.011695601977407932 73:0.0016883680364117026 74:5.496370140463114E-4 75:0.0 
-100.0 -0.0 -100.0 -100.0 100.0 1:0.19804206490516663 2:0.010897933505475521 3:0.047562845051288605 4:0.04974740371108055 5:0.0043487707152962685 6:9.859927231445909E-4 7:4.635975055862218E-4 8:8.819660433800891E-5 9:8.141224680002779E-5 10:6.105918437242508E-4 11:2.0579207921400666E-4 12:0.0038693430833518505 13:1.2664127280004323E-4 14:2.781584917102009E-4 15:4.6133605064824224E-4 16:8.593514794483781E-4 17:5.382254021242261E-4 18:5.337024922482669E-4 19:6.897426210343838E-4 20:0.006304926238954067 21:4.997806972824037E-4 22:0.0019855541177093983 23:7.982923416420817E-4 24:2.0353061700006947E-5 25:0.0 26:0.22664491832256317 27:0.007152970414608717 28:0.005805145483464003 29:0.0075690774247050285 30:0.011241674423217773 31:0.014482333324849606 32:0.013702132739126682 33:0.010719278827309608 34:0.007645966950803995 35:0.00558804627507925 36:0.003855774411931634 37:0.0027680164203047752 38:0.0021483786404132843 39:0.0015174337895587087 40:0.0012890271609649062 41:0.0010922809597104788 42:7.824621279723942E-4 43:6.038075080141425E-4 44:5.201338208280504E-4 45:4.635975055862218E-4 46:3.618322080001235E-4 47:3.482635074760765E-4 48:2.872043114621192E-4 49:0.0034102683421224356 50:0.0 51:7.982923416420817E-4 52:0.001151078729890287 53:0.0013342562597244978 54:0.0018498670542612672 55:0.0021845619194209576 56:0.0026933886110782623 57:0.0034758506808429956 58:0.003885173238813877 59:0.004579438827931881 60:0.004997807089239359 61:0.005171939264982939 62:0.005696595646440983 63:0.005913694854825735 64:0.006019982974976301 65:0.005868466105312109 66:0.0057350401766598225 67:0.005375469569116831 68:0.005377730820327997 69:0.005427483469247818 70:0.005563169717788696 71:0.009285518899559975 72:0.006212206557393074 73:0.009235766716301441 74:0.2221672236919403 75:0.0 
-100.0 -9.367080490373207 -100.0 -100.0 100.0 1:0.24768976867198944 2:0.0036740002688020468 3:0.006677000317722559 4:0.01357675064355135 5:0.01785300113260746 6:0.015430251136422157 7:0.006520249880850315 8:0.002991999965161085 9:0.0016307500191032887 10:0.0014850000152364373 11:0.0012072500539943576 12:0.0017545000882819295 13:9.652500157244503E-4 14:9.597500902600586E-4 15:0.001039499999023974 16:0.0010202500270679593 17:8.415000629611313E-4 18:6.324999849312007E-4 19:6.132500129751861E-4 20:0.001446500071324408 21:4.124999977648258E-4 22:8.60750034917146E-4 23:6.847500335425138E-4 24:3.300000025774352E-5 25:0.0 26:0.2577795088291168 27:0.006270000245422125 28:0.004567750263959169 29:0.005139750428497791 30:0.006143500562757254 31:0.00720225041732192 32:0.0075157503597438335 33:0.006996000185608864 34:0.005775000434368849 35:0.00486474996432662 36:0.003786749904975295 37:0.0029012500308454037 38:0.0021780000533908606 39:0.0017022499814629555 40:0.0012595000443980098 41:0.0010945000685751438 42:7.122500101104379E-4 43:6.324999849312007E-4 44:4.290000069886446E-4 45:3.520000318530947E-4 46:3.245000261813402E-4 47:2.530000056140125E-4 48:1.5400000847876072E-4 49:0.001966250129044056 50:0.0 51:9.130000253207982E-4 52:8.855000487528741E-4 53:8.580000139772892E-4 54:0.0013584999833256006 55:0.0020817501936107874 56:0.002340249950066209 57:0.002664749976247549 58:0.0030772502068430185 59:0.003704250091686845 60:0.004042500164359808 61:0.004512750077992678 62:0.0046777501702308655 63:0.0048950002528727055 64:0.004886750131845474 65:0.004870250355452299 66:0.00483175041154027 67:0.004606250207871199 68:0.004017750266939402 69:0.0029122503474354744 70:0.0025327501352876425 71:0.0025355000980198383 72:0.007163750473409891 73:0.006404750514775515 74:0.24922701716423035 75:0.0 
-100.0 -29.089262632103654 -42.19975985162267 -47.515892521057 31.855722472378908 1:0.003023778088390827 2:0.09755777567625046 3:0.20175711810588837 4:0.013517778366804123 5:0.010354666970670223 6:0.0014373332960531116 7:4.717778065241873E-4 8:2.493333595339209E-4 9:1.857777824625373E-4 10:1.1244445340707898E-4 11:8.311111741932109E-5 12:3.911111343768425E-5 13:5.8666668337536976E-5 14:4.8888890887610614E-5 15:9.288889123126864E-5 16:7.577778160339221E-5 17:8.800000796327367E-5 18:6.111110997153446E-5 19:7.333333633141592E-5 20:3.911111343768425E-5 21:1.0022222704719752E-4 22:2.053333300864324E-4 23:3.568888932932168E-4 24:9.777778359421063E-6 25:0.0 26:0.023615777492523193 27:0.007524000480771065 28:0.0028991112485527992 29:0.001865111174993217 30:0.0014911112375557423 31:0.0018700000364333391 32:0.003779111197218299 33:0.008924667723476887 34:0.019782889634370804 35:0.03551777824759483 36:0.048414669930934906 37:0.05024066939949989 38:0.041751112788915634 39:0.027324002236127853 40:0.017666000872850418 41:0.011009777896106243 42:0.006964222528040409 43:0.004940222483128309 44:0.003304889192804694 45:0.0026693332474678755 46:0.0019531112629920244 47:0.0015522222965955734 48:0.0010804444318637252 49:0.003859778167679906 50:0.0 51:4.888889179710532E-6 52:1.1244445340707898E-4 53:5.964444717392325E-4 54:0.0022146666888147593 55:0.004766666796058416 56:0.007010666653513908 57:0.010088223032653332 58:0.014476001262664795 59:0.0218973346054554 60:0.029883334413170815 61:0.03817000240087509 62:0.04323488846421242 63:0.04268244653940201 64:0.03315889090299606 65:0.022239556536078453 66:0.012319999746978283 67:0.006299333646893501 68:0.0032486668787896633 69:0.0018577779410406947 70:0.009851111099123955 71:0.014889111742377281 72:0.0035200000274926424 73:0.0063555557280778885 74:0.0011220000451430678 75:0.0 
-26.590568201400036 -0.0 -0.0 -0.0 0.0 1:0.22741052508354187 2:7.461988716386259E-4 3:0.015512573532760143 4:0.06808099895715714 5:0.008886842057108879 6:6.143274949863553E-4 7:1.9298246479593217E-4 8:1.2865498320024926E-5 9:9.649123057897668E-6 10:1.9941521168220788E-4 11:1.9298246115795337E-5 12:0.0010131578892469406 13:2.5730996640049852E-5 14:1.897660840768367E-4 15:9.649123239796609E-5 16:0.001688596559688449 17:3.152046992909163E-4 18:6.5292400540784E-4 19:1.383040944347158E-4 20:0.003788889152929187 21:1.9298246115795337E-5 22:3.4736841917037964E-4 23:3.859649223159067E-5 24:0.0 25:0.0 26:0.24928830564022064 27:0.0033739767968654633 28:0.0032742691691964865 29:0.0031070176046341658 30:0.003283918369561434 31:0.003566959174349904 32:0.005146198906004429 33:0.007658187299966812 34:0.009459356777369976 35:0.010102632455527782 36:0.008652047254145145 37:0.006574269384145737 38:0.004946783650666475 39:0.003357894951477647 40:0.0023994152434170246 41:0.0015502923633903265 42:0.0011257310397922993 43:8.587719639763236E-4 44:5.596491391770542E-4 45:4.2456144001334906E-4 46:2.8304095030762255E-4 47:2.0584797312039882E-4 48:1.5116958820726722E-4 49:6.497075664810836E-4 50:0.0 51:5.467836308525875E-5 52:1.9298246479593217E-4 53:6.014620303176343E-4 54:0.00107748550362885 55:0.0020809941925108433 56:0.0027628657408058643 57:0.003431871300563216 58:0.004383918363600969 59:0.0050336262211203575 60:0.005686549935489893 61:0.006011403631418943 62:0.00674152048304677 63:0.006040350999683142 64:0.0060274857096374035 65:0.0057669589295983315 66:0.004795614164322615 67:0.0041555557399988174 68:0.0033804094418883324 69:0.0028690057806670666 70:0.002235380234196782 71:0.0019233919447287917 72:0.001904093660414219 73:0.0022450294345617294 74:0.25059735774993896 75:0.0 
-71.78561060828808 -0.0 -0.0 -61.4525049372544 71.73627925168941 1:0.22741052508354187 2:7.461988716386259E-4 3:0.015512573532760143 4:0.06808099895715714 5:0.008886842057108879 6:6.143274949863553E-4 7:1.9298246479593217E-4 8:1.2865498320024926E-5 9:9.649123057897668E-6 10:1.9941521168220788E-4 11:1.9298246115795337E-5 12:0.0010131578892469406 13:2.5730996640049852E-5 14:1.897660840768367E-4 15:9.649123239796609E-5 16:0.001688596559688449 17:3.152046992909163E-4 18:6.5292400540784E-4 19:1.383040944347158E-4 20:0.003788889152929187 21:1.9298246115795337E-5 22:3.4736841917037964E-4 23:3.859649223159067E-5 24:0.0 25:0.0 26:0.24928830564022064 27:0.0033739767968654633 28:0.0032742691691964865 29:0.0031070176046341658 30:0.003283918369561434 31:0.003566959174349904 32:0.005146198906004429 33:0.007658187299966812 34:0.009459356777369976 35:0.010102632455527782 36:0.008652047254145145 37:0.006574269384145737 38:0.004946783650666475 39:0.003357894951477647 40:0.0023994152434170246 41:0.0015502923633903265 42:0.0011257310397922993 43:8.587719639763236E-4 44:5.596491391770542E-4 45:4.2456144001334906E-4 46:2.8304095030762255E-4 47:2.0584797312039882E-4 48:1.5116958820726722E-4 49:6.497075664810836E-4 50:0.0 51:5.467836308525875E-5 52:1.9298246479593217E-4 53:6.014620303176343E-4 54:0.00107748550362885 55:0.0020809941925108433 56:0.0027628657408058643 57:0.003431871300563216 58:0.004383918363600969 59:0.0050336262211203575 60:0.005686549935489893 61:0.006011403631418943 62:0.00674152048304677 63:0.006040350999683142 64:0.0060274857096374035 65:0.0057669589295983315 66:0.004795614164322615 67:0.0041555557399988174 68:0.0033804094418883324 69:0.0028690057806670666 70:0.002235380234196782 71:0.0019233919447287917 72:0.001904093660414219 73:0.0022450294345617294 74:0.25059735774993896 75:0.0 
-0.0 -0.0 -34.786816686746015 -0.0 0.0 1:0.029716501012444496 2:0.009157500229775906 3:0.06969600170850754 4:0.1335180103778839 5:0.02219250053167343 6:0.0053460001945495605 7:0.004521000199019909 8:0.010304249823093414 9:0.0018645001109689474 10:0.009776250459253788 11:0.006501000374555588 12:3.54750023689121E-4 13:0.001980000175535679 14:0.0015922500751912594 15:0.006575250532478094 16:0.0037372501101344824 17:0.006228750105947256 18:8.497500675730407E-4 19:0.0017160000279545784 20:2.3925000277813524E-4 21:9.322500554844737E-4 22:0.0017242500325664878 23:0.001377750071696937 24:9.900001168716699E-5 25:0.0 26:0.11446050554513931 27:0.020410500466823578 28:0.010667250491678715 29:0.01177275087684393 30:0.016945501789450645 31:0.02600400149822235 32:0.031358253210783005 33:0.0285202506929636 34:0.021235501393675804 35:0.014437500387430191 36:0.010089750401675701 37:0.006666000001132488 38:0.004347750451415777 39:0.0032999999821186066 40:0.0020707501098513603 41:0.0014437501085922122 42:0.0011302500497549772 43:0.001023000106215477 44:5.775000317953527E-4 45:5.115000531077385E-4 46:5.527500179596245E-4 47:3.3825001446530223E-4 48:2.7225000667385757E-4 49:0.0018645001109689474 50:0.0 51:1.9800002337433398E-4 52:0.0011302500497549772 53:0.0027967500500380993 54:0.005643000360578299 55:0.008151000365614891 56:0.012144001200795174 57:0.015105750411748886 58:0.018480001017451286 59:0.022415250539779663 60:0.022877251729369164 61:0.021317999809980392 62:0.019965000450611115 63:0.01680525206029415 64:0.01343925017863512 65:0.009652500040829182 66:0.007301250472664833 67:0.007045500446110964 68:0.00715275015681982 69:0.010774500668048859 70:0.025492500513792038 71:0.04528425261378288 72:0.03566475212574005 73:0.0011550000635907054 74:8.25000006443588E-6 75:0.0 
-0.0 -20.76232686725907 -0.8900978038966664 -0.0 71.33177083180664 1:0.024734286591410637 2:0.0070265308022499084 3:0.06336449086666107 4:0.10631387680768967 5:0.023445716127753258 6:0.0024312245659530163 7:0.002105714287608862 8:7.991836755536497E-4 9:8.979592239484191E-4 10:0.002123673679307103 11:0.07218020409345627 12:5.455102073028684E-4 13:0.002675918396562338 14:0.01412040926516056 15:0.0018902042647823691 16:0.0014434694312512875 17:0.0011875510681420565 18:4.377551085781306E-4 19:6.195918540470302E-4 20:4.7142857511062175E-5 21:2.402040991000831E-4 22:9.361224947497249E-4 23:4.220408445689827E-4 24:1.122449066315312E-5 25:0.0 26:0.141464501619339 27:0.009367959573864937 28:0.004889387637376785 29:0.003762449137866497 30:0.0034414285328239202 31:0.0039128572680056095 32:0.005596530623733997 33:0.008676530793309212 34:0.01275551039725542 35:0.016589796170592308 36:0.019104082137346268 37:0.019337551668286324 38:0.017683062702417374 39:0.01372979674488306 40:0.010162653401494026 41:0.007527143228799105 42:0.005556122399866581 43:0.004417959600687027 44:0.0032685715705156326 45:0.0027275511529296637 46:0.0023773470893502235 47:0.0018475510878488421 48:0.001241428661160171 49:0.010562245734035969 50:0.0 51:0.0010393877746537328 52:0.0042406124994158745 53:0.005722245201468468 54:0.00657081650570035 55:0.007616939023137093 56:0.008795510046184063 57:0.010288367979228497 58:0.01190244872123003 59:0.012856530956923962 60:0.01388693880289793 61:0.014843265525996685 62:0.014998164027929306 63:0.015274286270141602 64:0.014190001413226128 65:0.01261857245117426 66:0.009902245365083218 67:0.007666326593607664 68:0.00849918369203806 69:0.005414694547653198 70:0.013271837495267391 71:0.026465104892849922 72:0.0525665320456028 73:0.05108041316270828 74:2.8959184419363737E-4 75:0.0 
-100.0 -21.604229228647668 -100.0 -0.0 71.30756186361963 1:0.025841381400823593 2:0.06085747107863426 3:0.2131563425064087 4:0.015632184222340584 5:0.0019356322009116411 6:5.448276060633361E-4 7:3.7931036786176264E-4 8:1.4942529378458858E-4 9:1.0114943142980337E-4 10:4.827586526516825E-4 11:1.1954023648286238E-4 12:5.103448056615889E-4 13:1.9540231733117253E-4 14:2.4137932632584125E-4 15:6.459770374931395E-4 16:6.574713042937219E-4 17:3.6321842344477773E-4 18:3.218390920665115E-4 19:5.103448056615889E-4 20:8.574712555855513E-4 21:7.540230290032923E-4 22:0.0025241379626095295 23:0.003080459777265787 24:1.379310415359214E-4 25:0.0 26:0.021501149982213974 27:0.001997701358050108 28:0.006062068976461887 29:0.016517242416739464 30:0.029889656230807304 31:0.041006896644830704 32:0.04375862330198288 33:0.03957471251487732 34:0.033344827592372894 35:0.026335634291172028 36:0.02033333294093609 37:0.014965517446398735 38:0.010487356223165989 39:0.00717471307143569 40:0.004758620634675026 41:0.003347126767039299 42:0.002333333482965827 43:0.0015862069558352232 44:0.0010804597986862063 45:7.724137976765633E-4 46:5.63218432944268E-4 47:4.206896701361984E-4 48:1.7011495947372168E-4 49:0.0020183909218758345 50:0.0 51:0.0037816092371940613 52:0.012664368376135826 53:0.014563219621777534 54:0.014331035315990448 55:0.013940230011940002 56:0.014958621002733707 57:0.015565517358481884 58:0.016388505697250366 59:0.016360919922590256 60:0.01800459809601307 61:0.01859310269355774 62:0.01959310472011566 63:0.021505748853087425 64:0.02232413925230503 65:0.02213793247938156 66:0.02028505876660347 67:0.0168827585875988 68:0.012485058046877384 69:0.007779310457408428 70:0.0047333333641290665 71:0.002735632238909602 72:0.0014298850437626243 73:0.0027609195094555616 74:0.016195403411984444 75:0.0 
-0.0 -27.604579216805238 -69.30864632664493 -0.0 55.949363757229975 1:0.002534545725211501 2:0.0033188192173838615 3:0.021688232198357582 4:0.1291654407978058 5:0.0861087441444397 6:0.01866442710161209 7:0.011177279986441135 8:0.009410698898136616 9:0.007360754534602165 10:0.004393736831843853 11:0.0050009447149932384 12:0.0037932274863123894 13:0.015188926830887794 14:0.007461518980562687 15:0.0019046224188059568 16:8.89115035533905E-4 17:2.679285535123199E-4 18:8.358205377589911E-5 19:3.0870025511831045E-4 20:1.106661329686176E-5 21:1.2260641960892826E-4 22:5.856568459421396E-4 23:5.594464601017535E-4 24:0.0 25:0.0 26:0.029159070923924446 27:0.05416262894868851 28:0.017101412639021873 29:0.01146792434155941 30:0.009455257095396519 31:0.007873021997511387 32:0.006734617054462433 33:0.006578228436410427 34:0.00724630244076252 35:0.008599923923611641 36:0.010146046057343483 37:0.011919033713638783 38:0.013620380312204361 39:0.014359804801642895 40:0.0142989382147789 41:0.014259041287004948 42:0.014111679047346115 43:0.014476295560598373 44:0.013883649371564388 45:0.012590602040290833 46:0.010935560800135136 47:0.008683214895427227 48:0.006060427520424128 49:0.012276952154934406 50:0.0 51:6.057514838175848E-5 52:0.0016634867060929537 53:0.004900471307337284 54:0.009936071932315826 55:0.013513500802218914 56:0.01679271273314953 57:0.02043129876255989 58:0.02160552516579628 59:0.022456489503383636 60:0.0221512820571661 61:0.019216591492295265 62:0.01595660112798214 63:0.013419433496892452 64:0.011164175346493721 65:0.009964029304683208 66:0.010412227362394333 67:0.010943424887955189 68:0.015916993841528893 69:0.023617610335350037 70:0.021899372339248657 71:0.01201310008764267 72:0.007637419737875462 73:0.005346048157662153 74:0.01898157224059105 75:0.0 
-0.0 -10.3794522215245 -0.0 -0.0 3.8295476105374915 1:0.0027929688803851604 2:0.010866797529160976 3:0.05994570627808571 4:0.09343984723091125 5:0.019413283094763756 6:0.0016156251076608896 7:0.001134374993853271 8:6.531249964609742E-4 9:5.800781073048711E-4 10:0.001022656331770122 11:0.001533984555862844 12:0.0024621093180030584 13:0.0034460939932614565 14:0.1221601665019989 15:0.004975781310349703 16:7.648437167517841E-4 17:5.585937760770321E-4 18:2.8359374846331775E-4 19:5.843750550411642E-4 20:1.07421881693881E-4 21:3.222656378056854E-4 22:6.70312496367842E-4 23:6.574218859896064E-4 24:8.593750862928573E-6 25:0.0 26:0.13577266037464142 27:0.010879687033593655 28:0.0035664064344018698 29:0.0032570313196629286 30:0.0034031253308057785 31:0.003828515764325857 32:0.005680468864738941 33:0.008198438212275505 34:0.012478126212954521 35:0.01640976592898369 36:0.02003203146159649 37:0.020741017535328865 38:0.02015664055943489 39:0.016727734357118607 40:0.012155860662460327 41:0.00959921907633543 42:0.006286328192800283 43:0.004851172212511301 44:0.0035148439928889275 45:0.002526562660932541 46:0.0019121094373986125 47:0.0015898438869044185 48:9.453125530853868E-4 49:0.005487109534442425 50:0.0 51:0.0010527344420552254 52:0.0046449219807982445 53:0.005736328195780516 54:0.006827734410762787 55:0.007880468852818012 56:0.008907422423362732 57:0.01081523485481739 58:0.01219023484736681 59:0.013384765945374966 60:0.014398829080164433 61:0.015455859713256359 62:0.015675000846385956 63:0.015593359246850014 64:0.014974609948694706 65:0.013139844872057438 66:0.01036835927516222 67:0.007369141094386578 68:0.004846875090152025 69:0.0036007813178002834 70:0.0042367191053926945 71:0.1369457095861435 72:0.0017746094381436706 73:1.7187501362059265E-4 74:8.593750862928573E-6 75:0.0 
-80.03862329691815 -0.0 -0.0 -0.0 67.80165799711375 1:0.10219375789165497 2:0.021648000925779343 3:0.09155649691820145 4:0.08112526684999466 5:0.01627141423523426 6:0.0014745366061106324 7:9.400976123288274E-4 8:5.215610144659877E-4 9:3.1551221036352217E-4 10:0.0017514147330075502 11:7.404878851957619E-4 12:0.0017578537808731198 13:4.700488061644137E-4 14:2.511219645384699E-4 15:5.022439290769398E-4 16:0.0016483903164044023 17:0.0010495609603822231 18:9.594146977178752E-4 19:7.469268748536706E-4 20:0.0017256585415452719 21:4.8292684368789196E-4 22:9.400976123288274E-4 23:9.207805269397795E-4 24:6.439024673454696E-6 25:0.0 26:0.14241190254688263 27:0.015131708234548569 28:0.01303902454674244 29:0.01714068278670311 30:0.023875903338193893 31:0.02516370825469494 32:0.02347668446600437 33:0.01766868308186531 34:0.0124273169785738 35:0.009072585962712765 36:0.0067416587844491005 37:0.005106146447360516 38:0.003457756247371435 39:0.0026400003116577864 40:0.002202146453782916 41:0.0016999025829136372 42:0.001326439087279141 43:0.0010431220289319754 44:9.014634997583926E-4 45:6.117073353379965E-4 46:5.34439051989466E-4 47:4.442927020136267E-4 48:3.1551221036352217E-4 49:0.003567219479009509 50:0.0 51:4.442927020136267E-4 52:0.0015260487562045455 53:0.0033482927829027176 54:0.005531121976673603 55:0.008724878542125225 56:0.009246439673006535 57:0.0092915128916502 58:0.00965853687375784 59:0.010411903262138367 60:0.011680390685796738 61:0.0124080004170537 62:0.012511024251580238 63:0.012968195602297783 64:0.01197014655917883 65:0.010701658204197884 66:0.009458927437663078 67:0.007868488319218159 68:0.0066772690042853355 69:0.0053765857592225075 70:0.00497092679142952 71:0.004243317525833845 72:0.004912975709885359 73:0.02028292790055275 74:0.13578616082668304 75:0.0 
-39.17811572368787 -17.308447240560213 -97.61346645033568 -0.0 -100.0 1:0.05320122092962265 2:0.0037195123732089996 3:0.03601481020450592 4:0.17522212862968445 5:0.05138066038489342 6:0.00164634152315557 7:6.707317079417408E-4 8:1.4372823352459818E-4 9:2.395470510236919E-4 10:9.18989593628794E-4 11:2.8745646704919636E-4 12:3.5714288242161274E-4 13:1.5679442731197923E-4 14:2.264808426843956E-4 15:2.8745646704919636E-4 16:0.0025304879527539015 17:2.9181185527704656E-4 18:1.9163763499818742E-4 19:4.790941020473838E-4 20:6.620209314860404E-4 21:5.226481152931228E-5 22:0.0011019164230674505 23:2.1777005167677999E-4 24:0.0 25:0.0 26:0.07610191404819489 27:0.0062325787730515 28:0.003706446150317788 29:0.005779617000371218 30:0.01201655063778162 31:0.019804008305072784 32:0.024499129503965378 33:0.02631968818604946 34:0.0255487821996212 35:0.022748257964849472 36:0.02013937383890152 37:0.016027875244617462 38:0.012926829978823662 39:0.010248258709907532 40:0.00798780471086502 41:0.0065766554325819016 42:0.005074041895568371 43:0.004263937473297119 44:0.0034843208268284798 45:0.002835365943610668 46:0.0028484321665018797 47:0.0031620210502296686 48:0.002569686621427536 49:0.009098432026803493 50:0.0 51:0.0014721255283802748 52:0.00461236946284771 53:0.008218641392886639 54:0.0115331020206213 55:0.015261324122548103 56:0.01815331168472767 57:0.022086238488554955 58:0.026023520156741142 59:0.02738240547478199 60:0.027465157210826874 61:0.025191638618707657 62:0.020492160692811012 63:0.01567073166370392 64:0.009586237370967865 65:0.006032230332493782 66:0.00331445992924273 67:0.0018336237408220768 68:0.0011890244204550982 69:9.625435923226178E-4 70:9.18989593628794E-4 71:8.667247602716088E-4 72:0.0014329268597066402 73:0.006637630984187126 74:0.0736628919839859 75:0.0 
-100.0 -0.0 -100.0 -100.0 -100.0 1:0.21982914209365845 2:0.004358199890702963 3:0.024439068511128426 4:0.03666446730494499 5:0.012674934230744839 6:9.298666846007109E-4 7:0.00232833344489336 8:2.588666684459895E-4 9:2.5226667639799416E-4 10:0.007633266970515251 11:0.0012400667183101177 12:0.002426600083708763 13:0.011884400621056557 14:0.0031775336246937513 15:0.001259133336134255 16:2.046000154223293E-4 17:2.860000131477136E-5 18:3.5933335311710835E-5 19:5.2066665375605226E-5 20:1.6133333701873198E-5 21:2.860000131477136E-5 22:1.701333385426551E-4 23:1.0340000153519213E-4 24:4.4000003072142135E-6 25:0.0 26:0.26111361384391785 27:0.006099867168813944 28:7.920000934973359E-4 29:7.318666903302073E-4 30:7.267333567142487E-4 31:8.484667050652206E-4 32:0.0011498667299747467 33:0.0016661332920193672 34:0.0026568667963147163 35:0.003938733600080013 36:0.005571133457124233 37:0.006947600282728672 38:0.007968400605022907 39:0.007895800285041332 40:0.006777466740459204 41:0.005139933433383703 42:0.0031768002081662416 43:0.0020166668109595776 44:0.0011975333327427506 45:8.125333697535098E-4 46:5.558666889555752E-4 47:4.0040002204477787E-4 48:2.1120000747032464E-4 49:0.0016045334050431848 50:0.0 51:0.0018876000540331006 52:0.001595733338035643 53:0.0019235335057601333 54:0.0020533334463834763 55:0.0022843333426862955 56:0.002464733552187681 57:0.002587933326140046 58:0.002783733420073986 59:0.002904733410105109 60:0.0031760670244693756 61:0.0034327334724366665 62:0.0037612668238580227 63:0.0039555998519063 64:0.0040986002422869205 65:0.004224733449518681 66:0.004208600148558617 67:0.004114000126719475 68:0.004254066850990057 69:0.004061200190335512 70:0.005120133515447378 71:0.023002468049526215 72:0.023292867466807365 73:0.0023026668932288885 74:0.21650934219360352 75:0.0 
-0.0 -100.0 -100.0 -100.0 -26.663413348606944 1:0.061804164201021194 2:0.1172441691160202 3:0.08083680272102356 4:0.003030720166862011 5:0.012812800705432892 6:5.01600035931915E-4 7:3.977599844802171E-4 8:2.640000020619482E-4 9:2.886400034185499E-4 10:6.300800014287233E-4 11:0.014000801369547844 12:0.003528800094500184 13:4.6992002171464264E-4 14:0.0013024000218138099 15:7.004800136201084E-4 16:8.324800292029977E-4 17:0.0049931202083826065 18:0.0011651200475171208 19:0.001466080080717802 20:0.001404479960910976 21:0.0019500801572576165 22:0.00798864010721445 23:0.010359360836446285 24:0.0020275202114135027 25:0.0 26:0.06548960506916046 27:0.01140656042844057 28:0.0038561602123081684 29:0.002534399973228574 30:0.002133120084181428 31:0.001788160065189004 32:0.001964160241186619 33:0.002082080114632845 34:0.002242240123450756 35:0.003058880101889372 36:0.004524960182607174 37:0.005170879885554314 38:0.005454239901155233 39:0.0058150398544967175 40:0.006265600211918354 41:0.007289920002222061 42:0.008706720545887947 43:0.012559360824525356 44:0.021431520581245422 45:0.03134208172559738 46:0.03272720053792 47:0.03273952007293701 48:0.029483521357178688 49:0.029934082180261612 50:0.0 51:6.300800014287233E-4 52:0.001728320145048201 53:0.0030465603340417147 54:0.004667520057410002 55:0.004704480059444904 56:0.0060561602003872395 57:0.007749280426651239 58:0.00961840059608221 59:0.00921711977571249 60:0.010725440457463264 61:0.012606880627572536 62:0.012860320508480072 63:0.014324639923870564 64:0.011615999974310398 65:0.012385120615363121 66:0.01251887995749712 67:0.008879200555384159 68:0.007944639772176743 69:0.009641280397772789 70:0.012070080265402794 71:0.018944641575217247 72:0.03867248073220253 73:0.050316642969846725 74:0.04907584190368652 75:0.0 
-0.0 -2.8753453503529887 -0.0 -0.0 -36.00786108534555 1:9.861328871920705E-4 2:0.01519160158932209 3:0.04359394684433937 4:0.2572474777698517 5:0.007128516212105751 6:0.0024921875447034836 7:0.0019765624310821295 8:6.832031067460775E-4 9:1.5253906894940883E-4 10:4.40429721493274E-4 11:1.0527343692956492E-4 12:0.0 13:0.0 14:0.0 15:0.0 16:0.0 17:0.0 18:0.0 19:0.0 20:0.0 21:0.0 22:0.0 23:2.1484377157321433E-6 24:0.0 25:0.0 26:7.283203303813934E-4 27:0.006477539427578449 28:0.015984375029802322 29:0.019479883834719658 30:0.014852148480713367 31:0.006673047319054604 32:0.0053560552187263966 33:0.004077734425663948 34:0.0025974612217396498 35:0.0017123047728091478 36:0.0014888672158122063 37:0.0011279297759756446 38:7.433593855239451E-4 39:4.7480472130700946E-4 40:4.124999977648258E-4 41:4.662109713535756E-4 42:5.843750550411642E-4 43:0.006142382975667715 44:0.013724219053983688 45:0.012854102067649364 46:0.014463282190263271 47:0.02864941582083702 48:0.08961133658885956 49:0.08131836354732513 50:0.0 51:0.0 52:0.0 53:8.593750862928573E-6 54:6.4453124650754035E-6 55:1.1601563164731488E-4 56:7.132812752388418E-4 57:0.004445117432624102 58:0.008761328645050526 59:0.013157032430171967 60:0.022956054657697678 61:0.050327152013778687 62:0.023293359205126762 63:0.013984180055558681 64:0.01641836017370224 65:0.017771875485777855 66:0.01566210947930813 67:0.013872461393475533 68:0.015554687939584255 69:0.01996757835149765 70:0.021104101091623306 71:0.014229102060198784 72:0.008138282224535942 73:0.01137382909655571 74:0.038139063864946365 75:0.0 
-50.12843851914481 -13.1535590648013 -0.0 -14.93394943041818 -14.907609942876727 1:0.03682747483253479 2:0.03043973818421364 3:0.11008184403181076 4:0.015898268669843674 5:0.0021321168169379234 6:2.972041838802397E-4 7:0.001106977928429842 8:7.322421879507601E-5 9:9.906805644277483E-5 10:0.005220456048846245 11:4.4795990106649697E-4 12:2.3259458248503506E-4 13:0.0014903281116858125 14:0.0010639048414304852 15:0.0171990767121315 16:0.10241483896970749 17:0.0023819406051188707 18:3.5319916787557304E-4 19:5.297987954691052E-4 20:2.5843841285677627E-5 21:9.906805644277483E-5 22:0.0014171040384098887 23:1.6798496653791517E-4 24:0.0 25:0.0 26:0.2016638070344925 27:0.018874619156122208 28:0.008877359330654144 29:0.009101339615881443 30:0.011569426394999027 31:0.004354687407612801 32:0.001081134076230228 33:5.685645155608654E-4 34:5.384133546613157E-4 35:6.676326156593859E-4 36:6.590179400518537E-4 37:7.063983357511461E-4 38:0.0011931239860132337 39:0.002002897672355175 40:0.0017315372824668884 41:8.270029211416841E-4 42:4.8241837066598237E-4 43:6.719398661516607E-4 44:0.0017013861797749996 45:0.005185997113585472 46:0.010738115757703781 47:0.014726681634783745 48:0.01461038552224636 49:0.01746612973511219 50:0.0 51:0.0 52:0.0 53:0.0 54:0.0 55:2.153653622372076E-5 56:3.8765763747505844E-5 57:1.0337536514271051E-4 58:4.393453127704561E-4 59:0.0014601770089939237 60:0.0029763488564640284 61:0.005293679889291525 62:0.007925444282591343 63:0.010845798999071121 64:0.010759652592241764 65:0.019856685772538185 66:0.019675778225064278 67:0.017177540808916092 68:0.01652713678777218 69:0.016496986150741577 70:0.0193914957344532 71:0.0444815568625927 72:0.12173311412334442 73:0.01434333249926567 74:4.522672388702631E-4 75:0.0 
-8.671950689664277 -15.810240551573667 -0.0 -0.0 -0.0 1:0.004972000140696764 2:0.06266700476408005 3:0.2532605528831482 4:0.008508500643074512 5:1.2100000458303839E-4 6:2.6125000658794306E-5 7:8.937500751926564E-6 8:8.25000006443588E-6 9:7.562500286439899E-6 10:1.3750001244261512E-6 11:4.8125002649612725E-6 12:1.1687499863910489E-5 13:1.3750001244261512E-6 14:3.4375000268482836E-6 15:8.25000006443588E-6 16:8.25000006443588E-6 17:1.1687499863910489E-5 18:4.8125002649612725E-6 19:7.562500286439899E-6 20:4.8125002649612725E-6 21:6.875000053696567E-6 22:5.225000131758861E-5 23:2.3856251209508628E-4 24:5.431250610854477E-5 25:0.0 26:2.6812500436790287E-5 27:3.300000025774352E-5 28:3.437500345171429E-5 29:4.400000398163684E-5 30:6.256250344449654E-5 31:1.1412500316509977E-4 32:2.4337501963600516E-4 33:4.028750117868185E-4 34:7.280625868588686E-4 35:0.0011845625704154372 36:0.0019195001805201173 37:0.0027355626225471497 38:0.0052566248923540115 39:0.007761187851428986 40:0.008038250729441643 41:0.00866250041872263 42:0.01710706204175949 43:0.022434502840042114 44:0.022393250837922096 45:0.019286438822746277 46:0.01619543693959713 47:0.027489688247442245 48:0.10443949699401855 49:0.06340675055980682 50:0.0 51:2.6675002300180495E-4 52:0.0026688750367611647 53:0.004102312494069338 54:0.0037482501938939095 55:0.0030387502629309893 56:0.002251562662422657 57:0.0015613125870004296 58:0.0010965624824166298 59:7.981875096447766E-4 60:6.847500335425138E-4 61:0.00144581263884902 62:0.0021525626070797443 63:0.0022570625878870487 64:0.003128125099465251 65:0.014729000627994537 66:0.03281300142407417 67:0.024595312774181366 68:0.016891876235604286 69:0.015899812802672386 70:0.015512063167989254 71:0.011972812935709953 72:0.013829750940203667 73:0.06986375153064728 74:0.08469174802303314 75:0.0 
-100.0 -0.0 -55.55852892628936 -100.0 -100.0 1:0.21768148243427277 2:0.007204938679933548 3:0.08256790041923523 4:0.01270370464771986 5:0.0014617284759879112 6:8.543209987692535E-4 7:4.888888797722757E-4 8:2.7901233988814056E-4 9:2.370370493736118E-4 10:3.234567993786186E-4 11:2.3456790950149298E-4 12:6.864197785034776E-4 13:2.716049493756145E-4 14:3.333333588670939E-4 15:3.209876886103302E-4 16:3.530864487402141E-4 17:3.901234595105052E-4 18:3.7283950950950384E-4 19:4.543210088741034E-4 20:0.0013925926759839058 21:2.4197531456593424E-4 22:7.506172987632453E-4 23:3.85185208870098E-4 24:9.87654311757069E-6 25:0.0 26:0.23838765919208527 27:0.004051852039992809 28:0.0015209877165034413 29:8.320987690240145E-4 30:5.13580278493464E-4 31:4.7654323861934245E-4 32:3.580246993806213E-4 33:3.382716095075011E-4 34:2.8641975950449705E-4 35:2.888888993766159E-4 36:2.641975588630885E-4 37:2.56790139246732E-4 38:2.8641975950449705E-4 39:3.1851851963438094E-4 40:4.7654323861934245E-4 41:8.962962892837822E-4 42:0.001533333444967866 43:0.0019827161449939013 44:0.0026666668709367514 45:0.005116049665957689 46:0.01133333332836628 47:0.019819753244519234 48:0.021624691784381866 49:0.016370370984077454 50:0.0 51:0.0 52:0.0 53:0.0 54:0.0 55:3.4567900002002716E-5 56:3.62962979124859E-4 57:3.7283950950950384E-4 58:1.3827160000801086E-4 59:1.4567901962436736E-4 60:1.28395069623366E-4 61:1.5555556456092745E-4 62:2.4444443988613784E-4 63:4.790123784914613E-4 64:8.592592785134912E-4 65:0.001533333444967866 66:0.002587654395028949 67:0.003244444727897644 68:0.005264197941869497 69:0.0069876546040177345 70:0.012419753707945347 71:0.019061729311943054 72:0.023051852360367775 73:0.030353087931871414 74:0.22257530689239502 75:0.0 
-37.804442631311865 -0.0 -0.0 -0.0 -0.0 1:3.4812898957170546E-4 2:0.02941361628472805 3:0.2867203652858734 4:0.01313694380223751 5:2.791600418277085E-4 6:6.5684716901159845E-6 7:3.2842358450579923E-6 8:3.2842358450579923E-6 9:0.0 10:0.0 11:0.0 12:0.0 13:0.0 14:0.0 15:0.0 16:0.0 17:0.0 18:0.0 19:9.852707989921328E-6 20:0.0 21:1.6421179680037312E-5 22:2.2989650460658595E-5 23:3.941083195968531E-5 24:0.0 25:0.0 26:2.8572851442731917E-4 27:0.016884256154298782 28:0.07615157961845398 29:0.013783937320113182 30:0.006184216123074293 31:0.005405852105468512 32:0.005461684428155422 33:0.004121716134250164 34:0.0034615846816450357 35:0.0032513935584574938 36:0.003211982548236847 37:0.0032710987143218517 38:0.0038951036985963583 39:0.00396078871563077 40:0.004857385065406561 41:0.004147990141063929 42:0.0015008957125246525 43:0.00252229324541986 44:0.006985569838434458 45:0.017383459955453873 46:0.0339130200445652 47:0.04536514729261398 48:0.038635749369859695 49:0.025357583537697792 50:0.0 51:0.0 52:0.0 53:0.0 54:0.0 55:1.3465367374010384E-4 56:0.0018424562877044082 57:0.0013695262605324388 58:9.885549079626799E-4 59:9.62281075771898E-4 60:0.0010082604130730033 61:0.001359673566184938 62:0.003418889595195651 63:0.009777169674634933 64:0.02116033248603344 65:0.02712121792137623 66:0.03202786669135094 67:0.03422502055764198 68:0.03126920759677887 69:0.02717376872897148 70:0.031699445098638535 71:0.03599850833415985 72:0.04129926487803459 73:0.020785929635167122 74:0.006377985700964928 75:0.0 
-100.0 -0.0 -1.3107138934663296 -0.0 -100.0 1:0.13095690310001373 2:0.007571034599095583 3:0.14012862741947174 4:0.010252758860588074 5:0.0036489656195044518 6:7.320690201595426E-4 7:6.562069174833596E-4 8:1.21379314805381E-4 9:1.4793103036936373E-4 10:6.106896908022463E-4 11:5.23448281455785E-4 12:0.0013731035869568586 13:1.4793103036936373E-4 14:4.66551719000563E-4 15:0.0014451724709942937 16:0.008356207050383091 17:0.010150345042347908 18:0.002529999939724803 19:0.0017713793786242604 20:0.0023934482596814632 21:0.0013693104265257716 22:0.002017931081354618 23:0.0026286207139492035 24:0.0 25:0.0 26:0.16924069821834564 27:0.018555862829089165 28:0.011151724494993687 29:0.0030155174899846315 30:8.951724739745259E-4 31:8.420690428465605E-4 32:9.103448828682303E-4 33:8.041379624046385E-4 34:5.272413836792111E-4 35:3.9448277675546706E-4 36:3.7172413431108E-4 37:3.034482942894101E-4 38:3.7172413431108E-4 39:4.0965518564917147E-4 40:4.134482878725976E-4 41:4.362069012131542E-4 42:0.0010279311100021005 43:0.0025148275308310986 44:0.007161379791796207 45:0.016492415219545364 46:0.03192655369639397 47:0.03782103583216667 48:0.018665863201022148 49:0.005746551789343357 50:0.0 51:0.0 52:0.0 53:0.0 54:0.0 55:0.0 56:0.0 57:1.175862125819549E-4 58:7.4344826862216E-4 59:0.001608275924809277 60:0.0034251727629452944 61:0.0052534486167132854 62:0.008454827591776848 63:0.012813104316592216 64:0.011694138869643211 65:0.015043448656797409 66:0.019875863566994667 67:0.02365758828818798 68:0.022257931530475616 69:0.02095310389995575 70:0.01728138141334057 71:0.010954483412206173 72:0.006178965792059898 73:0.009118621237576008 74:0.14056862890720367 75:0.0 
-65.33780346620988 -0.0 -100.0 -0.0 -96.23301940754654 1:0.0955110564827919 2:0.04258860647678375 3:0.10941397398710251 4:0.0031916615553200245 5:6.939439917914569E-4 6:4.663688305299729E-4 7:3.493759431876242E-4 8:1.1218493455089629E-4 9:1.3862852938473225E-4 10:4.2790541192516685E-4 11:2.203632757300511E-4 12:0.0011987762991338968 13:2.9809141415171325E-4 14:2.596279955469072E-4 15:0.01283555943518877 16:0.0035851101856678724 17:6.947452784515917E-4 18:9.848234476521611E-4 19:0.0018382304115220904 20:0.0043487693183124065 21:0.015620950609445572 22:0.02423274703323841 23:0.010002088733017445 24:9.864261373877525E-4 25:0.0 26:0.08708436042070389 27:0.004759045317769051 28:0.00888905394822359 29:0.012207324616611004 30:0.008244791999459267 31:0.014758729375898838 32:0.01433963980525732 33:0.009340998716652393 34:0.004211743362247944 35:0.0020289449021220207 36:0.0013093583984300494 37:0.001040915958583355 38:0.0010385119821876287 39:0.001205186708830297 40:0.0020666068885475397 41:0.004422490485012531 42:0.009373852983117104 43:0.024721555411815643 44:0.048518385738134384 45:0.03978879377245903 46:0.0182348620146513 47:0.006824049632996321 48:0.00299854320473969 49:0.0025922732893377542 50:0.0 51:0.0 52:3.165217931382358E-4 53:0.017160288989543915 54:0.002974503440782428 55:0.021596403792500496 56:0.011015759781002998 57:0.00741141801699996 58:0.005086785648018122 59:0.003996187821030617 60:0.0036572290118783712 61:0.0039376914501190186 62:0.004537880886346102 63:0.005241440609097481 64:0.005438565742224455 65:0.005343208555132151 66:0.005400102119892836 67:0.005813583731651306 68:0.006850493606179953 69:0.00850602239370346 70:0.012174470350146294 71:0.020805498585104942 72:0.05162911117076874 73:0.030026299878954887 74:0.09108055382966995 75:0.0 
-0.0 -26.461046211719427 -18.282546601494207 -0.0 -0.0 1:0.018722448498010635 2:0.13726098835468292 3:0.16891008615493774 4:0.005074790213257074 5:0.0 6:0.0 7:0.0 8:0.0 9:0.0 10:0.0 11:0.0 12:0.0 13:0.0 14:0.0 15:0.0 16:0.0 17:0.0 18:0.0 19:0.0 20:0.0 21:0.0 22:0.0 23:7.923169505374972E-6 24:2.3769507606630214E-5 25:0.0 26:0.0 27:0.0 28:0.0 29:0.0 30:1.5846339010749944E-5 31:8.517407695762813E-5 32:5.9423775383038446E-5 33:2.0600241259671748E-4 34:3.446578630246222E-4 35:0.0013588236179202795 36:0.0039021610282361507 37:0.0050312126986682415 38:0.005603661295026541 39:0.005734393838793039 40:0.006445498205721378 41:0.007867707870900631 42:0.009862365201115608 43:0.010868607088923454 44:0.01209273748099804 45:0.01867293007671833 46:0.03140348196029663 47:0.05193043500185013 48:0.09556729346513748 49:0.0629476010799408 50:0.0 51:0.0 52:0.0 53:0.0029692077077925205 54:0.009301801212131977 55:0.005865125916898251 56:0.009717767126858234 57:0.02752508968114853 58:0.012031332589685917 59:0.008353001438081264 60:0.006328631658107042 61:0.005326350685209036 62:0.005336254835128784 63:0.005581873003393412 64:0.006631692871451378 65:0.008273770101368427 66:0.010894358158111572 67:0.014426110312342644 68:0.01713583432137966 69:0.019203782081604004 70:0.024672750383615494 71:0.03162137046456337 72:0.03230276331305504 73:0.03842935338616371 74:0.02807179093360901 75:0.0 
